{"learner":{"attributes":{},"feature_names":[],"feature_types":[],"gradient_booster":{"model":{"cats":{"enc":[],"feature_segments":[],"sorted_idx":[]},"gbtree_model_param":{"num_parallel_tree":"1","num_trees":"100"},"iteration_indptr":[0,1,2,3,4,5,6,7,8,9,10,11,12,13,14,15,16,17,18,19,20,21,22,23,24,25,26,27,28,29,30,31,32,33,34,35,36,37,38,39,40,41,42,43,44,45,46,47,48,49,50,51,52,53,54,55,56,57,58,59,60,61,62,63,64,65,66,67,68,69,70,71,72,73,74,75,76,77,78,79,80,81,82,83,84,85,86,87,88,89,90,91,92,93,94,95,96,97,98,99,100],"tree_info":[0,0,0,0,0,0,0,0,0,0,0,0,0,0,0,0,0,0,0,0,0,0,0,0,0,0,0,0,0,0,0,0,0,0,0,0,0,0,0,0,0,0,0,0,0,0,0,0,0,0,0,0,0,0,0,0,0,0,0,0,0,0,0,0,0,0,0,0,0,0,0,0,0,0,0,0,0,0,0,0,0,0,0,0,0,0,0,0,0,0,0,0,0,0,0,0,0,0,0,0],"trees":[{"base_weights":[3.8285921E-3,2.6408069E-2,-9.556032E-3,4.6087466E-2,-8.849396E-3,-1.5725152E-3,3.480648E-3],"categories":[],"categories_nodes":[],"categories_segments":[],"categories_sizes":[],"default_left":[0,0,0,0,0,0,0],"id":0,"left_children":[1,3,-1,5,-1,-1,-1],"loss_changes":[2.1193416E-1,1.8027344E-1,0E0,7.515392E-2,0E0,0E0,0E0],"parents":[2147483647,0,0,1,1,3,3],"right_children":[2,4,-1,6,-1,-1,-1],"split_conditions":[9.140461E-3,1.5478667E-2,-9.556032E-3,2.2465298E-2,-8.849396E-3,-1.5725152E-3,3.480648E-3],"split_indices":[54,11,0,48,0,0,0],"split_type":[0,0,0,0,0,0,0],"sum_hessian":[4.6E1,4.2E1,4E0,3.9E1,3E0,9E0,3E1],"tree_param":{"num_deleted":"0","num_feature":"64","num_nodes":"7","size_leaf_vector":"1"}},{"base_weights":[2.8853836E-3,5.5149194E-2,-8.438127E-2,2.4893418E-2,1.227942E-2,-1.7523783E-1,2.5946174E-2,2.6934298E-3,-4.2748903E-3,-1.27793E-3,-1.1786743E-2,2.3717694E-3,-6.387096E-4],"categories":[],"categories_nodes":[],"categories_segments":[],"categories_sizes":[],"default_left":[0,0,0,0,0,0,0,0,0,0,0,0,0],"id":1,"left_children":[1,3,5,7,-1,9,11,-1,-1,-1,-1,-1,-1],"loss_changes":[2.1901529E-1,1.6674303E-1,1.8497826E-1,9.096799E-2,0E0,8.452645E-2,8.094582E-3,0E0,0E0,0E0,0E0,0E0,0E0],"parents":[2147483647,0,0,1,1,2,2,3,3,5,5,6,6],"right_children":[2,4,6,8,-1,10,12,-1,-1,-1,-1,-1,-1],"split_conditions":[6.78201E-3,6.7685833E-3,8.720231E-3,6.741627E-3,1.227942E-2,1.4412998E-2,1.1099288E-2,2.6934298E-3,-4.2748903E-3,-1.27793E-3,-1.1786743E-2,2.3717694E-3,-6.387096E-4],"split_indices":[42,42,6,42,0,20,29,0,0,0,0,0,0],"split_type":[0,0,0,0,0,0,0,0,0,0,0,0,0],"sum_hessian":[4.6E1,2.9E1,1.7E1,2.6E1,3E0,9E0,8E0,2.1E1,5E0,3E0,6E0,5E0,3E0],"tree_param":{"num_deleted":"0","num_feature":"64","num_nodes":"13","size_leaf_vector":"1"}},{"base_weights":[3.7052142E-3,-1.5880543E-1,3.1360563E-2,-1.0679193E-2,-3.2162822E-3,-5.3077093E-3,5.340856E-2,1.6455941E-3,8.695279E-3],"categories":[],"categories_nodes":[],"categories_segments":[],"categories_sizes":[],"default_left":[0,0,0,0,0,0,0,0,0],"id":2,"left_children":[1,3,5,-1,-1,-1,7,-1,-1],"loss_changes":[2.162118E-1,2.248925E-2,1.2997843E-1,0E0,0E0,0E0,8.318882E-2,0E0,0E0],"parents":[2147483647,0,0,1,1,2,2,6,6],"right_children":[2,4,6,-1,-1,-1,8,-1,-1],"split_conditions":[1.2308975E-2,3.9625756E-2,5.6632035E-3,-1.0679193E-2,-3.2162822E-3,-5.3077093E-3,1.1691546E-2,1.6455941E-3,8.695279E-3],"split_indices":[18,0,22,0,0,0,9,0,0],"split_type":[0,0,0,0,0,0,0,0,0],"sum_hessian":[4.6E1,6E0,4E1,3E0,3E0,5E0,3.5E1,3.1E1,4E0],"tree_param":{"num_deleted":"0","num_feature":"64","num_nodes":"9","size_leaf_vector":"1"}},{"base_weights":[-7.499015E-3,2.3584029E-2,-1.0012323E-1,-6.4601265E-2,5.9986115E-2,-3.061067E-2,-9.565934E-3,-5.7475995E-3,-1.741829E-4,8.936881E-3,1.5135248E-3,-2.990656E-3,6.7725295E-4],"categories":[],"categories_nodes":[],"categories_segments":[],"categories_sizes":[],"default_left":[0,0,0,0,0,0,0,0,0,0,0,0,0],"id":3,"left_children":[1,3,5,7,9,11,-1,-1,-1,-1,-1,-1,-1],"loss_changes":[1.3767631E-1,1.194398E-1,7.021435E-2,3.3450026E-2,8.633763E-2,1.1125815E-2,0E0,0E0,0E0,0E0,0E0,0E0,0E0],"parents":[2147483647,0,0,1,1,2,2,3,3,4,4,5,5],"right_children":[2,4,6,8,10,12,-1,-1,-1,-1,-1,-1,-1],"split_conditions":[1.8314041E-2,9.516924E-3,1.808904E-2,2.9869432E-2,5.5860626E-3,1.242844E-2,-9.565934E-3,-5.7475995E-3,-1.741829E-4,8.936881E-3,1.5135248E-3,-2.990656E-3,6.7725295E-4],"split_indices":[14,33,19,3,25,57,0,0,0,0,0,0,0],"split_type":[0,0,0,0,0,0,0,0,0,0,0,0,0],"sum_hessian":[4.6E1,3.5E1,1.1E1,1E1,2.5E1,7E0,4E0,5E0,5E0,4E0,2.1E1,4E0,3E0],"tree_param":{"num_deleted":"0","num_feature":"64","num_nodes":"13","size_leaf_vector":"1"}},{"base_weights":[-4.2567747E-3,3.188823E-2,-7.628074E-2,4.971496E-2,-5.266381E-3,-8.558119E-3,-9.386271E-3,6.2814547E-4,5.0650067E-3,3.6888146E-3,-2.432778E-3],"categories":[],"categories_nodes":[],"categories_segments":[],"categories_sizes":[],"default_left":[0,0,0,0,0,0,0,0,0,0,0],"id":4,"left_children":[1,3,5,7,-1,9,-1,-1,-1,-1,-1],"loss_changes":[1.2478788E-1,8.3511874E-2,1.1915066E-1,5.4305732E-2,0E0,3.990502E-2,0E0,0E0,0E0,0E0,0E0],"parents":[2147483647,0,0,1,1,2,2,3,3,5,5],"right_children":[2,4,6,8,-1,10,-1,-1,-1,-1,-1],"split_conditions":[4.0080052E-2,5.943796E-3,1.2433535E-2,9.691357E-3,-5.266381E-3,3.0052874E-2,-9.386271E-3,6.2814547E-4,5.0650067E-3,3.6888146E-3,-2.432778E-3],"split_indices":[63,22,30,33,0,3,0,0,0,0,0],"split_type":[0,0,0,0,0,0,0,0,0,0,0],"sum_hessian":[4.6E1,3.1E1,1.5E1,2.8E1,3E0,1E1,5E0,1.7E1,1.1E1,3E0,7E0],"tree_param":{"num_deleted":"0","num_feature":"64","num_nodes":"11","size_leaf_vector":"1"}},{"base_weights":[-5.8062596E-4,-9.310063E-2,5.017488E-2,-1.2850405E-1,2.7043247E-3,1.292591E-2,1.016123E-2,-9.5926935E-4,-7.828705E-3,4.6406477E-3,-5.2572397E-4],"categories":[],"categories_nodes":[],"categories_segments":[],"categories_sizes":[],"default_left":[0,0,0,0,0,0,0,0,0,0,0],"id":5,"left_children":[1,3,5,7,-1,9,-1,-1,-1,-1,-1],"loss_changes":[2.253786E-1,9.553608E-2,1.7410243E-1,3.9956212E-2,0E0,4.966305E-2,0E0,0E0,0E0,0E0,0E0],"parents":[2147483647,0,0,1,1,2,2,3,3,5,5],"right_children":[2,4,6,8,-1,10,-1,-1,-1,-1,-1],"split_conditions":[6.7175054E-3,1.2572872E-2,9.102339E-3,1.2123479E-2,2.7043247E-3,1.706732E-2,1.016123E-2,-9.5926935E-4,-7.828705E-3,4.6406477E-3,-5.2572397E-4],"split_indices":[42,18,54,30,0,59,0,0,0,0,0],"split_type":[0,0,0,0,0,0,0,0,0,0,0],"sum_hessian":[4.6E1,1.6E1,3E1,1.3E1,3E0,2.5E1,5E0,3E0,1E1,5E0,2E1],"tree_param":{"num_deleted":"0","num_feature":"64","num_nodes":"11","size_leaf_vector":"1"}},{"base_weights":[-1.0068779E-2,-1.2639724E-1,1.3448631E-2,-1.4944164E-3,-1.0771703E-2,8.177459E-3,-3.1419324E-3,-1.2193753E-3,3.8460852E-3],"categories":[],"categories_nodes":[],"categories_segments":[],"categories_sizes":[],"default_left":[0,0,0,0,0,0,0,0,0],"id":6,"left_children":[1,3,5,-1,-1,-1,7,-1,-1],"loss_changes":[1.3027985E-1,6.230381E-2,1.0012399E-1,0E0,0E0,0E0,6.481285E-2,0E0,0E0],"parents":[2147483647,0,0,1,1,2,2,6,6],"right_children":[2,4,6,-1,-1,-1,8,-1,-1],"split_conditions":[1.2713416E-2,5.614617E-3,1.08905025E-2,-1.4944164E-3,-1.0771703E-2,8.177459E-3,2.1892888E-2,-1.2193753E-3,3.8460852E-3],"split_indices":[28,38,29,0,0,0,31,0,0],"split_type":[0,0,0,0,0,0,0,0,0],"sum_hessian":[4.6E1,7E0,3.9E1,4E0,3E0,3E0,3.6E1,2.9E1,7E0],"tree_param":{"num_deleted":"0","num_feature":"64","num_nodes":"9","size_leaf_vector":"1"}},{"base_weights":[-5.7349987E-3,6.277746E-2,-8.644359E-2,1.2426919E-2,2.7741762E-2,-1.5682553E-1,1.3697279E-2,5.1192115E-3,3.319458E-4,-1.0450653E-2,-1.5761426E-3,1.27064E-3,-5.1146E-4],"categories":[],"categories_nodes":[],"categories_segments":[],"categories_sizes":[],"default_left":[0,0,0,0,0,0,0,0,0,0,0,0,0],"id":7,"left_children":[1,3,5,-1,7,9,11,-1,-1,-1,-1,-1,-1],"loss_changes":[2.653153E-1,1.6231996E-1,1.5720646E-1,0E0,3.5549156E-2,7.8421384E-2,3.063064E-3,0E0,0E0,0E0,0E0,0E0,0E0],"parents":[2147483647,0,0,1,1,2,2,4,4,5,5,6,6],"right_children":[2,4,6,-1,8,10,12,-1,-1,-1,-1,-1,-1],"split_conditions":[1.51819885E-2,1.7915854E-2,3.9897356E-2,1.2426919E-2,1.9879645E-2,9.708586E-3,2.1623908E-2,5.1192115E-3,3.319458E-4,-1.0450653E-2,-1.5761426E-3,1.27064E-3,-5.1146E-4],"split_indices":[11,19,63,0,8,45,2,0,0,0,0,0,0],"split_type":[0,0,0,0,0,0,0,0,0,0,0,0,0],"sum_hessian":[4.6E1,2.5E1,2.1E1,3E0,2.2E1,1.2E1,9E0,4E0,1.8E1,8E0,4E0,6E0,3E0],"tree_param":{"num_deleted":"0","num_feature":"64","num_nodes":"13","size_leaf_vector":"1"}},{"base_weights":[6.778693E-5,-6.362784E-2,3.0948462E-2,-1.034172E-1,9.961978E-4,-6.36353E-3,9.677474E-2,-1.8634833E-3,-6.178191E-3,-1.8923404E-3,2.1658759E-3,7.1561746E-3,2.1611138E-3],"categories":[],"categories_nodes":[],"categories_segments":[],"categories_sizes":[],"default_left":[0,0,0,0,0,0,0,0,0,0,0,0,0],"id":8,"left_children":[1,3,5,7,-1,9,11,-1,-1,-1,-1,-1,-1],"loss_changes":[9.638345E-2,5.5252045E-2,8.1667446E-2,1.0053948E-2,0E0,3.6050115E-2,2.3598962E-2,0E0,0E0,0E0,0E0,0E0,0E0],"parents":[2147483647,0,0,1,1,2,2,3,3,5,5,6,6],"right_children":[2,4,6,8,-1,10,12,-1,-1,-1,-1,-1,-1],"split_conditions":[1.7087616E-2,5.8917804E-3,1.2580319E-2,2.1609196E-2,9.961978E-4,1.4375751E-2,1.2855288E-2,-1.8634833E-3,-6.178191E-3,-1.8923404E-3,2.1658759E-3,7.1561746E-3,2.1611138E-3],"split_indices":[4,22,18,31,0,44,28,0,0,0,0,0,0],"split_type":[0,0,0,0,0,0,0,0,0,0,0,0,0],"sum_hessian":[4.7E1,1.5E1,3.2E1,1E1,5E0,2.1E1,1.1E1,3E0,7E0,1.3E1,8E0,5E0,6E0],"tree_param":{"num_deleted":"0","num_feature":"64","num_nodes":"13","size_leaf_vector":"1"}},{"base_weights":[1.5860949E-2,1.4443259E-2,-8.758559E-3,-8.246E-3,6.322497E-3,-4.1290815E-3,2.0266525E-3],"categories":[],"categories_nodes":[],"categories_segments":[],"categories_sizes":[],"default_left":[0,0,0,0,0,0,0],"id":9,"left_children":[1,-1,3,-1,5,-1,-1],"loss_changes":[3.251491E-1,0E0,1.0702128E-1,0E0,1.3108855E-1,0E0,0E0],"parents":[2147483647,0,0,2,2,4,4],"right_children":[2,-1,4,-1,6,-1,-1],"split_conditions":[1.7865723E-2,1.4443259E-2,2.2340225E-2,-8.246E-3,1.450735E-2,-4.1290815E-3,2.0266525E-3],"split_indices":[14,0,48,0,58,0,0],"split_type":[0,0,0,0,0,0,0],"sum_hessian":[4.7E1,3E0,4.4E1,3E0,4.1E1,1.1E1,3E1],"tree_param":{"num_deleted":"0","num_feature":"64","num_nodes":"7","size_leaf_vector":"1"}},{"base_weights":[4.7266796E-2,1.4808527E-2,2.4091646E-2,-6.5495535E-3,3.828782E-2,-2.2718646E-3,3.4731224E-3],"categories":[],"categories_nodes":[],"categories_segments":[],"categories_sizes":[],"default_left":[0,0,0,0,0,0,0],"id":10,"left_children":[1,-1,3,-1,5,-1,-1],"loss_changes":[2.697471E-1,0E0,1.04086496E-1,0E0,1.12780355E-1,0E0,0E0],"parents":[2147483647,0,0,2,2,4,4],"right_children":[2,-1,4,-1,6,-1,-1],"split_conditions":[1.7865723E-2,1.4808527E-2,2.2340225E-2,-6.5495535E-3,1.450735E-2,-2.2718646E-3,3.4731224E-3],"split_indices":[14,0,48,0,58,0,0],"split_type":[0,0,0,0,0,0,0],"sum_hessian":[4.7E1,3E0,4.4E1,3E0,4.1E1,1.1E1,3E1],"tree_param":{"num_deleted":"0","num_feature":"64","num_nodes":"7","size_leaf_vector":"1"}},{"base_weights":[2.5827602E-2,-3.710751E-2,5.555894E-2,-7.579831E-2,2.0005107E-3,2.1207435E-2,1.13906786E-1,-8.298658E-4,-4.796201E-3,-3.8752067E-4,3.19483E-3,6.820181E-3,1.7406106E-3],"categories":[],"categories_nodes":[],"categories_segments":[],"categories_sizes":[],"default_left":[0,0,0,0,0,0,0,0,0,0,0,0,0],"id":11,"left_children":[1,3,5,7,-1,9,11,-1,-1,-1,-1,-1,-1],"loss_changes":[9.187661E-2,5.077265E-2,6.372743E-2,1.1514001E-2,0E0,2.7691323E-2,1.6604006E-2,0E0,0E0,0E0,0E0,0E0,0E0],"parents":[2147483647,0,0,1,1,2,2,3,3,5,5,6,6],"right_children":[2,4,6,8,-1,10,12,-1,-1,-1,-1,-1,-1],"split_conditions":[1.7087616E-2,5.8917804E-3,1.2580319E-2,2.1609196E-2,2.0005107E-3,1.248184E-2,2.193342E-2,-8.298658E-4,-4.796201E-3,-3.8752067E-4,3.19483E-3,6.820181E-3,1.7406106E-3],"split_indices":[4,22,18,31,0,30,2,0,0,0,0,0,0],"split_type":[0,0,0,0,0,0,0,0,0,0,0,0,0],"sum_hessian":[4.7E1,1.5E1,3.2E1,1E1,5E0,2.1E1,1.1E1,3E0,7E0,1.3E1,8E0,8E0,3E0],"tree_param":{"num_deleted":"0","num_feature":"64","num_nodes":"13","size_leaf_vector":"1"}},{"base_weights":[-1.6443678E-3,2.0526214E-2,-9.599125E-3,3.8821638E-2,-8.377979E-3,-1.9286948E-3,3.1267814E-3],"categories":[],"categories_nodes":[],"categories_segments":[],"categories_sizes":[],"default_left":[0,0,0,0,0,0,0],"id":12,"left_children":[1,3,-1,5,-1,-1,-1],"loss_changes":[2.0227629E-1,1.544726E-1,0E0,7.582651E-2,0E0,0E0,0E0],"parents":[2147483647,0,0,1,1,3,3],"right_children":[2,4,-1,6,-1,-1,-1],"split_conditions":[9.140461E-3,1.5478667E-2,-9.599125E-3,2.2465298E-2,-8.377979E-3,-1.9286948E-3,3.1267814E-3],"split_indices":[54,11,0,48,0,0,0],"split_type":[0,0,0,0,0,0,0],"sum_hessian":[4.6E1,4.2E1,4E0,3.9E1,3E0,9E0,3E1],"tree_param":{"num_deleted":"0","num_feature":"64","num_nodes":"7","size_leaf_vector":"1"}},{"base_weights":[-8.932901E-3,5.5368677E-2,-8.451963E-2,1.1387383E-2,2.298239E-2,-1.513565E-1,1.0820267E-2,4.9112802E-3,9.8597375E-5,-1.0150081E-2,-1.4062017E-3,1.2396307E-3,-8.168206E-4],"categories":[],"categories_nodes":[],"categories_segments":[],"categories_sizes":[],"default_left":[0,0,0,0,0,0,0,0,0,0,0,0,0],"id":13,"left_children":[1,3,5,-1,7,9,11,-1,-1,-1,-1,-1,-1],"loss_changes":[2.3311602E-1,1.399164E-1,1.4182658E-1,0E0,3.6166847E-2,7.702735E-2,4.199449E-3,0E0,0E0,0E0,0E0,0E0,0E0],"parents":[2147483647,0,0,1,1,2,2,4,4,5,5,6,6],"right_children":[2,4,6,-1,8,10,12,-1,-1,-1,-1,-1,-1],"split_conditions":[1.51819885E-2,1.7915854E-2,3.9897356E-2,1.1387383E-2,1.9879645E-2,9.708586E-3,2.1623908E-2,4.9112802E-3,9.8597375E-5,-1.0150081E-2,-1.4062017E-3,1.2396307E-3,-8.168206E-4],"split_indices":[11,19,63,0,8,45,2,0,0,0,0,0,0],"split_type":[0,0,0,0,0,0,0,0,0,0,0,0,0],"sum_hessian":[4.6E1,2.5E1,2.1E1,3E0,2.2E1,1.2E1,9E0,4E0,1.8E1,8E0,4E0,6E0,3E0],"tree_param":{"num_deleted":"0","num_feature":"64","num_nodes":"13","size_leaf_vector":"1"}},{"base_weights":[3.7102014E-2,8.984407E-2,-5.2862633E-2,6.119534E-2,1.3038099E-2,-1.4095661E-1,5.0893195E-2,4.466511E-3,-2.6082548E-3,-6.871998E-4,-9.675644E-3,3.5935303E-3,3.3518896E-4],"categories":[],"categories_nodes":[],"categories_segments":[],"categories_sizes":[],"default_left":[0,0,0,0,0,0,0,0,0,0,0,0,0],"id":14,"left_children":[1,3,5,7,-1,9,11,-1,-1,-1,-1,-1,-1],"loss_changes":[2.2776066E-1,1.3094003E-1,1.7169848E-1,9.0773225E-2,0E0,6.419855E-2,7.861011E-3,0E0,0E0,0E0,0E0,0E0,0E0],"parents":[2147483647,0,0,1,1,2,2,3,3,5,5,6,6],"right_children":[2,4,6,8,-1,10,12,-1,-1,-1,-1,-1,-1],"split_conditions":[6.78201E-3,6.7685833E-3,8.720231E-3,6.741627E-3,1.3038099E-2,1.4412998E-2,1.1099288E-2,4.466511E-3,-2.6082548E-3,-6.871998E-4,-9.675644E-3,3.5935303E-3,3.3518896E-4],"split_indices":[42,42,6,42,0,20,29,0,0,0,0,0,0],"split_type":[0,0,0,0,0,0,0,0,0,0,0,0,0],"sum_hessian":[4.6E1,2.9E1,1.7E1,2.6E1,3E0,9E0,8E0,2.1E1,5E0,3E0,6E0,5E0,3E0],"tree_param":{"num_deleted":"0","num_feature":"64","num_nodes":"13","size_leaf_vector":"1"}},{"base_weights":[3.914208E-2,-1.21719554E-1,6.565157E-2,-8.779049E-3,-1.8714126E-3,-3.7304747E-3,8.720477E-2,2.976061E-3,8.182096E-3],"categories":[],"categories_nodes":[],"categories_segments":[],"categories_sizes":[],"default_left":[0,0,0,0,0,0,0,0,0],"id":15,"left_children":[1,3,5,-1,-1,-1,7,-1,-1],"loss_changes":[2.0841604E-1,2.5208645E-2,1.3045232E-1,0E0,0E0,0E0,6.643772E-2,0E0,0E0],"parents":[2147483647,0,0,1,1,2,2,6,6],"right_children":[2,4,6,-1,-1,-1,8,-1,-1],"split_conditions":[1.2308975E-2,3.9625756E-2,5.6632035E-3,-8.779049E-3,-1.8714126E-3,-3.7304747E-3,1.1628679E-2,2.976061E-3,8.182096E-3],"split_indices":[18,0,22,0,0,0,9,0,0],"split_type":[0,0,0,0,0,0,0,0,0],"sum_hessian":[4.6E1,6E0,4E1,3E0,3E0,5E0,3.5E1,2.7E1,8E0],"tree_param":{"num_deleted":"0","num_feature":"64","num_nodes":"9","size_leaf_vector":"1"}},{"base_weights":[1.4835254E-2,5.0181985E-2,-5.6785412E-2,6.8407156E-2,-4.724799E-3,8.266197E-3,-8.329123E-3,1.4890725E-3,6.032256E-3,4.0930077E-3,-1.4782029E-3],"categories":[],"categories_nodes":[],"categories_segments":[],"categories_sizes":[],"default_left":[0,0,0,0,0,0,0,0,0,0,0],"id":16,"left_children":[1,3,5,7,-1,9,-1,-1,-1,-1,-1],"loss_changes":[1.2183276E-1,9.084118E-2,1.156566E-1,5.4921135E-2,0E0,3.304498E-2,0E0,0E0,0E0,0E0,0E0],"parents":[2147483647,0,0,1,1,2,2,3,3,5,5],"right_children":[2,4,6,8,-1,10,-1,-1,-1,-1,-1],"split_conditions":[4.0080052E-2,5.943796E-3,1.2433535E-2,9.691357E-3,-4.724799E-3,3.0052874E-2,-8.329123E-3,1.4890725E-3,6.032256E-3,4.0930077E-3,-1.4782029E-3],"split_indices":[63,22,30,33,0,3,0,0,0,0,0],"split_type":[0,0,0,0,0,0,0,0,0,0,0],"sum_hessian":[4.6E1,3.1E1,1.5E1,2.8E1,3E0,1E1,5E0,1.7E1,1.1E1,3E0,7E0],"tree_param":{"num_deleted":"0","num_feature":"64","num_nodes":"11","size_leaf_vector":"1"}},{"base_weights":[4.222083E-2,6.624227E-2,-8.316397E-2,-1.9957537E-2,9.191181E-2,-9.868899E-4,-7.082785E-3,1.9096051E-3,-2.5167412E-3,1.9696963E-3,6.642227E-3],"categories":[],"categories_nodes":[],"categories_segments":[],"categories_sizes":[],"default_left":[0,0,0,0,0,0,0,0,0,0,0],"id":17,"left_children":[1,3,5,7,9,-1,-1,-1,-1,-1,-1],"loss_changes":[1.4706936E-1,9.03427E-2,2.6883278E-2,1.9586675E-2,6.1407447E-2,0E0,0E0,0E0,0E0,0E0,0E0],"parents":[2147483647,0,0,1,1,2,2,3,3,4,4],"right_children":[2,4,6,8,10,-1,-1,-1,-1,-1,-1],"split_conditions":[1.8366843E-2,1.9914443E-2,1.7987827E-2,1.438523E-2,1.1473639E-2,-9.868899E-4,-7.082785E-3,1.9096051E-3,-2.5167412E-3,1.9696963E-3,6.642227E-3],"split_indices":[14,8,19,58,5,0,0,0,0,0,0],"split_type":[0,0,0,0,0,0,0,0,0,0,0],"sum_hessian":[4.6E1,3.9E1,7E0,9E0,3E1,4E0,3E0,3E0,6E0,1.4E1,1.6E1],"tree_param":{"num_deleted":"0","num_feature":"64","num_nodes":"11","size_leaf_vector":"1"}},{"base_weights":[2.3582287E-2,-8.626411E-2,4.4962008E-2,-1.1799932E-4,-8.4789125E-3,9.226699E-3,2.8657958E-2,2.434526E-3,-1.9537813E-3],"categories":[],"categories_nodes":[],"categories_segments":[],"categories_sizes":[],"default_left":[0,0,0,0,0,0,0,0,0],"id":18,"left_children":[1,3,5,-1,-1,-1,7,-1,-1],"loss_changes":[1.1425742E-1,5.5522993E-2,8.573518E-2,0E0,0E0,0E0,5.2107073E-2,0E0,0E0],"parents":[2147483647,0,0,1,1,2,2,6,6],"right_children":[2,4,6,-1,-1,-1,8,-1,-1],"split_conditions":[1.2713416E-2,5.614617E-3,1.08905025E-2,-1.1799932E-4,-8.4789125E-3,9.226699E-3,1.5171356E-2,2.434526E-3,-1.9537813E-3],"split_indices":[28,38,29,0,0,0,11,0,0],"split_type":[0,0,0,0,0,0,0,0,0],"sum_hessian":[4.6E1,7E0,3.9E1,4E0,3E0,3E0,3.6E1,2.8E1,8E0],"tree_param":{"num_deleted":"0","num_feature":"64","num_nodes":"9","size_leaf_vector":"1"}},{"base_weights":[6.195641E-3,-8.55034E-2,5.6282353E-2,-1.17481194E-1,2.389737E-3,2.048443E-2,1.0101315E-2,-1.3105929E-3,-6.9994973E-3,2.0639712E-3,-2.7856058E-3],"categories":[],"categories_nodes":[],"categories_segments":[],"categories_sizes":[],"default_left":[0,0,0,0,0,0,0,0,0,0,0],"id":19,"left_children":[1,3,5,7,-1,9,-1,-1,-1,-1,-1],"loss_changes":[2.206788E-1,7.807884E-2,1.5759882E-1,2.5091633E-2,0E0,4.3496933E-2,0E0,0E0,0E0,0E0,0E0],"parents":[2147483647,0,0,1,1,2,2,3,3,5,5],"right_children":[2,4,6,8,-1,10,-1,-1,-1,-1,-1],"split_conditions":[6.7175054E-3,1.2572872E-2,9.102339E-3,1.2123479E-2,2.389737E-3,1.7349413E-2,1.0101315E-2,-1.3105929E-3,-6.9994973E-3,2.0639712E-3,-2.7856058E-3],"split_indices":[42,18,54,30,0,4,0,0,0,0,0],"split_type":[0,0,0,0,0,0,0,0,0,0,0],"sum_hessian":[4.6E1,1.6E1,3E1,1.3E1,3E0,2.5E1,5E0,3E0,1E1,2E1,5E0],"tree_param":{"num_deleted":"0","num_feature":"64","num_nodes":"11","size_leaf_vector":"1"}},{"base_weights":[-3.6550837E-3,-9.397666E-2,4.599401E-2,-1.2342564E-1,1.6294465E-3,1.150124E-2,9.38985E-3,-3.116023E-3,-7.5224238E-3,1.6214516E-3,-3.1831455E-3],"categories":[],"categories_nodes":[],"categories_segments":[],"categories_sizes":[],"default_left":[0,0,0,0,0,0,0,0,0,0,0],"id":20,"left_children":[1,3,5,7,-1,9,-1,-1,-1,-1,-1],"loss_changes":[2.1508844E-1,6.738518E-2,1.4946663E-1,1.3741255E-2,0E0,4.2963035E-2,0E0,0E0,0E0,0E0,0E0],"parents":[2147483647,0,0,1,1,2,2,3,3,5,5],"right_children":[2,4,6,8,-1,10,-1,-1,-1,-1,-1],"split_conditions":[6.7175054E-3,1.2572872E-2,9.102339E-3,6.5751835E-3,1.6294465E-3,5.8920123E-3,9.38985E-3,-3.116023E-3,-7.5224238E-3,1.6214516E-3,-3.1831455E-3],"split_indices":[42,18,54,42,0,26,0,0,0,0,0],"split_type":[0,0,0,0,0,0,0,0,0,0,0],"sum_hessian":[4.6E1,1.6E1,3E1,1.3E1,3E0,2.5E1,5E0,5E0,8E0,2E1,5E0],"tree_param":{"num_deleted":"0","num_feature":"64","num_nodes":"11","size_leaf_vector":"1"}},{"base_weights":[1.3584822E-2,-4.778702E-2,4.2929206E-2,-7.616903E-2,2.8200627E-3,1.2405451E-2,9.531199E-2,-4.9148203E-4,-4.754394E-3,-8.663214E-4,2.8638327E-3,5.8662496E-3,1.0977377E-3],"categories":[],"categories_nodes":[],"categories_segments":[],"categories_sizes":[],"default_left":[0,0,0,0,0,0,0,0,0,0,0,0,0],"id":21,"left_children":[1,3,5,7,-1,9,11,-1,-1,-1,-1,-1,-1],"loss_changes":[8.849557E-2,5.1609192E-2,5.1581956E-2,1.5381157E-2,0E0,3.0342715E-2,1.6801909E-2,0E0,0E0,0E0,0E0,0E0,0E0],"parents":[2147483647,0,0,1,1,2,2,3,3,5,5,6,6],"right_children":[2,4,6,8,-1,10,12,-1,-1,-1,-1,-1,-1],"split_conditions":[1.7087616E-2,1.8283563E-2,1.2580319E-2,2.142157E-2,2.8200627E-3,1.248184E-2,1.2444572E-2,-4.9148203E-4,-4.754394E-3,-8.663214E-4,2.8638327E-3,5.8662496E-3,1.0977377E-3],"split_indices":[4,47,18,31,0,30,57,0,0,0,0,0,0],"split_type":[0,0,0,0,0,0,0,0,0,0,0,0,0],"sum_hessian":[4.7E1,1.5E1,3.2E1,1.2E1,3E0,2.1E1,1.1E1,3E0,9E0,1.3E1,8E0,8E0,3E0],"tree_param":{"num_deleted":"0","num_feature":"64","num_nodes":"13","size_leaf_vector":"1"}},{"base_weights":[3.4912348E-2,1.3628586E-2,1.301124E-2,-6.516907E-3,2.6353769E-2,-4.9255026E-4,4.608955E-3],"categories":[],"categories_nodes":[],"categories_segments":[],"categories_sizes":[],"default_left":[0,0,0,0,0,0,0],"id":22,"left_children":[1,-1,3,-1,5,-1,-1],"loss_changes":[2.4629365E-1,0E0,8.950383E-2,0E0,1.0100208E-1,0E0,0E0],"parents":[2147483647,0,0,2,2,4,4],"right_children":[2,-1,4,-1,6,-1,-1],"split_conditions":[1.7865723E-2,1.3628586E-2,2.2340225E-2,-6.516907E-3,9.636318E-3,-4.9255026E-4,4.608955E-3],"split_indices":[14,0,48,0,45,0,0],"split_type":[0,0,0,0,0,0,0],"sum_hessian":[4.7E1,3E0,4.4E1,3E0,4.1E1,2.7E1,1.4E1],"tree_param":{"num_deleted":"0","num_feature":"64","num_nodes":"7","size_leaf_vector":"1"}},{"base_weights":[7.473652E-3,4.2485617E-2,-6.3017376E-2,6.437202E-2,-4.428769E-3,1.8588359E-3,-8.572711E-3,1.223089E-3,5.7773595E-3,3.4109768E-3,-1.5776934E-3],"categories":[],"categories_nodes":[],"categories_segments":[],"categories_sizes":[],"default_left":[0,0,0,0,0,0,0,0,0,0,0],"id":23,"left_children":[1,3,5,7,-1,9,-1,-1,-1,-1,-1],"loss_changes":[1.1867472E-1,9.749229E-2,1.1287825E-1,5.436109E-2,0E0,2.6542785E-2,0E0,0E0,0E0,0E0,0E0],"parents":[2147483647,0,0,1,1,2,2,3,3,5,5],"right_children":[2,4,6,8,-1,10,-1,-1,-1,-1,-1],"split_conditions":[4.0080052E-2,5.936618E-3,1.2433535E-2,9.691357E-3,-4.428769E-3,3.0052874E-2,-8.572711E-3,1.223089E-3,5.7773595E-3,3.4109768E-3,-1.5776934E-3],"split_indices":[63,22,30,33,0,3,0,0,0,0,0],"split_type":[0,0,0,0,0,0,0,0,0,0,0],"sum_hessian":[4.6E1,3.1E1,1.5E1,2.7E1,4E0,1E1,5E0,1.6E1,1.1E1,3E0,7E0],"tree_param":{"num_deleted":"0","num_feature":"64","num_nodes":"11","size_leaf_vector":"1"}},{"base_weights":[3.0525293E-2,5.5981714E-2,-1.0057248E-1,-3.8963944E-2,7.7302426E-2,-2.0179907E-3,-7.5347596E-3,-3.83484E-3,-4.9243572E-5,2.4069643E-3,6.9781863E-3],"categories":[],"categories_nodes":[],"categories_segments":[],"categories_sizes":[],"default_left":[0,0,0,0,0,0,0,0,0,0,0],"id":24,"left_children":[1,3,5,7,9,-1,-1,-1,-1,-1,-1],"loss_changes":[1.624824E-1,8.3984375E-2,1.8062152E-2,1.1388934E-2,5.320078E-2,0E0,0E0,0E0,0E0,0E0,0E0],"parents":[2147483647,0,0,1,1,2,2,3,3,4,4],"right_children":[2,4,6,8,10,-1,-1,-1,-1,-1,-1],"split_conditions":[1.8366843E-2,1.9881647E-2,1.7987827E-2,8.619687E-3,8.7624695E-3,-2.0179907E-3,-7.5347596E-3,-3.83484E-3,-4.9243572E-5,2.4069643E-3,6.9781863E-3],"split_indices":[14,8,19,6,27,0,0,0,0,0,0],"split_type":[0,0,0,0,0,0,0,0,0,0,0],"sum_hessian":[4.6E1,3.9E1,7E0,7E0,3.2E1,4E0,3E0,3E0,4E0,2.3E1,9E0],"tree_param":{"num_deleted":"0","num_feature":"64","num_nodes":"11","size_leaf_vector":"1"}},{"base_weights":[1.4637669E-2,-4.9821224E-2,4.951391E-2,-8.8702515E-2,1.8395262E-2,-3.907394E-2,8.753049E-2,-8.001926E-3,-2.0973352E-3,1.974792E-3,-3.652066E-4,-4.5871437E-3,1.5971785E-3,9.679383E-3,2.6603679E-3],"categories":[],"categories_nodes":[],"categories_segments":[],"categories_sizes":[],"default_left":[0,0,0,0,0,0,0,0,0,0,0,0,0,0,0],"id":25,"left_children":[1,3,5,7,9,11,13,-1,-1,-1,-1,-1,-1,-1,-1],"loss_changes":[1.0812679E-1,4.672157E-2,1.07822165E-1,2.9976003E-2,4.0843873E-3,4.033476E-2,6.97844E-2,0E0,0E0,0E0,0E0,0E0,0E0,0E0,0E0],"parents":[2147483647,0,0,1,1,2,2,3,3,4,4,5,5,6,6],"right_children":[2,4,6,8,10,12,14,-1,-1,-1,-1,-1,-1,-1,-1],"split_conditions":[1.4163396E-2,1.2572896E-2,2.3326715E-2,1.2675584E-2,2.0178279E-2,1.4534247E-2,2.9531626E-2,-8.001926E-3,-2.0973352E-3,1.974792E-3,-3.652066E-4,-4.5871437E-3,1.5971785E-3,9.679383E-3,2.6603679E-3],"split_indices":[49,53,32,28,52,44,3,0,0,0,0,0,0,0,0],"split_type":[0,0,0,0,0,0,0,0,0,0,0,0,0,0,0],"sum_hessian":[4.6E1,1.6E1,3E1,1E1,6E0,9E0,2.1E1,3E0,7E0,3E0,3E0,5E0,4E0,4E0,1.7E1],"tree_param":{"num_deleted":"0","num_feature":"64","num_nodes":"15","size_leaf_vector":"1"}},{"base_weights":[2.5560403E-2,7.8621246E-2,-6.429435E-2,1.0088274E-1,-4.5649577E-3,-1.4568032E-1,3.3278316E-2,3.6799468E-3,1.1968245E-2,-1.5169755E-3,-9.5388945E-3,3.3529121E-3,-3.578636E-4],"categories":[],"categories_nodes":[],"categories_segments":[],"categories_sizes":[],"default_left":[0,0,0,0,0,0,0,0,0,0,0,0,0],"id":26,"left_children":[1,3,5,7,-1,9,11,-1,-1,-1,-1,-1,-1],"loss_changes":[2.2914004E-1,1.2269099E-1,1.4778683E-1,8.4397614E-2,0E0,4.6227813E-2,1.2773153E-2,0E0,0E0,0E0,0E0,0E0,0E0],"parents":[2147483647,0,0,1,1,2,2,3,3,5,5,6,6],"right_children":[2,4,6,8,-1,10,12,-1,-1,-1,-1,-1,-1],"split_conditions":[6.78201E-3,5.881968E-3,8.720231E-3,6.7685833E-3,-4.5649577E-3,1.4412998E-2,5.6783864E-3,3.6799468E-3,1.1968245E-2,-1.5169755E-3,-9.5388945E-3,3.3529121E-3,-3.578636E-4],"split_indices":[42,26,6,42,0,20,25,0,0,0,0,0,0],"split_type":[0,0,0,0,0,0,0,0,0,0,0,0,0],"sum_hessian":[4.6E1,2.9E1,1.7E1,2.6E1,3E0,9E0,8E0,2.3E1,3E0,3E0,6E0,4E0,4E0],"tree_param":{"num_deleted":"0","num_feature":"64","num_nodes":"13","size_leaf_vector":"1"}},{"base_weights":[3.34481E-2,-1.18026756E-1,5.8493856E-2,-8.303307E-3,-2.0240347E-3,7.7722825E-2,-4.774964E-3,-2.3937859E-3,4.510658E-3],"categories":[],"categories_nodes":[],"categories_segments":[],"categories_sizes":[],"default_left":[0,0,0,0,0,0,0,0,0],"id":27,"left_children":[1,3,5,-1,-1,7,-1,-1,-1],"loss_changes":[1.8521255E-1,1.935438E-2,1.2882876E-1,0E0,0E0,6.2363386E-2,0E0,0E0,0E0],"parents":[2147483647,0,0,1,1,2,2,5,5],"right_children":[2,4,6,-1,-1,8,-1,-1,-1],"split_conditions":[1.2308975E-2,3.9625756E-2,2.3852859E-2,-8.303307E-3,-2.0240347E-3,5.6632035E-3,-4.774964E-3,-2.3937859E-3,4.510658E-3],"split_indices":[18,0,32,0,0,22,0,0,0],"split_type":[0,0,0,0,0,0,0,0,0],"sum_hessian":[4.6E1,6E0,4E1,3E0,3E0,3.6E1,4E0,3E0,3.3E1],"tree_param":{"num_deleted":"0","num_feature":"64","num_nodes":"9","size_leaf_vector":"1"}},{"base_weights":[-1.7218053E-2,4.4876044E-3,-1.0022155E-2,2.1077069E-2,-8.126448E-3,5.30605E-3,-1.7500979E-4],"categories":[],"categories_nodes":[],"categories_segments":[],"categories_sizes":[],"default_left":[0,0,0,0,0,0,0],"id":28,"left_children":[1,3,-1,5,-1,-1,-1],"loss_changes":[1.8781945E-1,1.22566395E-1,0E0,8.397734E-2,0E0,0E0,0E0],"parents":[2147483647,0,0,1,1,3,3],"right_children":[2,4,-1,6,-1,-1,-1],"split_conditions":[9.140461E-3,1.5478667E-2,-1.0022155E-2,2.2707218E-2,-8.126448E-3,5.30605E-3,-1.7500979E-4],"split_indices":[54,11,0,62,0,0,0],"split_type":[0,0,0,0,0,0,0],"sum_hessian":[4.6E1,4.2E1,4E0,3.9E1,3E0,8E0,3.1E1],"tree_param":{"num_deleted":"0","num_feature":"64","num_nodes":"7","size_leaf_vector":"1"}},{"base_weights":[-1.925885E-2,3.959997E-2,-8.794387E-2,9.099936E-3,5.4366197E-3,-1.5306683E-1,5.5103777E-3,3.919088E-3,-1.0314262E-3,-1.0116338E-2,-1.689281E-3,1.1545486E-3,-1.3316628E-3],"categories":[],"categories_nodes":[],"categories_segments":[],"categories_sizes":[],"default_left":[0,0,0,0,0,0,0,0,0,0,0,0,0],"id":29,"left_children":[1,3,5,-1,7,9,11,-1,-1,-1,-1,-1,-1],"loss_changes":[1.9349037E-1,1.2549582E-1,1.3473585E-1,0E0,4.344606E-2,6.954944E-2,6.266029E-3,0E0,0E0,0E0,0E0,0E0,0E0],"parents":[2147483647,0,0,1,1,2,2,4,4,5,5,6,6],"right_children":[2,4,6,-1,8,10,12,-1,-1,-1,-1,-1,-1],"split_conditions":[1.51819885E-2,3.8917463E-2,3.9897356E-2,9.099936E-3,1.5030681E-2,9.708586E-3,2.1623908E-2,3.919088E-3,-1.0314262E-3,-1.0116338E-2,-1.689281E-3,1.1545486E-3,-1.3316628E-3],"split_indices":[11,0,63,0,7,45,2,0,0,0,0,0,0],"split_type":[0,0,0,0,0,0,0,0,0,0,0,0,0],"sum_hessian":[4.6E1,2.5E1,2.1E1,4E0,2.1E1,1.2E1,9E0,5E0,1.6E1,8E0,4E0,6E0,3E0],"tree_param":{"num_deleted":"0","num_feature":"64","num_nodes":"13","size_leaf_vector":"1"}},{"base_weights":[2.7243495E-2,5.266241E-2,-1.0325652E-1,-3.9200384E-2,7.333635E-2,-1.5093203E-3,-7.0530656E-3,-3.7167973E-3,-1.6259284E-4,2.2754464E-3,6.639426E-3],"categories":[],"categories_nodes":[],"categories_segments":[],"categories_sizes":[],"default_left":[0,0,0,0,0,0,0,0,0,0,0],"id":30,"left_children":[1,3,5,7,9,-1,-1,-1,-1,-1,-1],"loss_changes":[1.6134468E-1,7.884145E-2,1.7841063E-2,9.862844E-3,4.855217E-2,0E0,0E0,0E0,0E0,0E0,0E0],"parents":[2147483647,0,0,1,1,2,2,3,3,4,4],"right_children":[2,4,6,8,10,-1,-1,-1,-1,-1,-1],"split_conditions":[1.8366843E-2,1.9881647E-2,1.1583851E-2,8.619687E-3,8.7624695E-3,-1.5093203E-3,-7.0530656E-3,-3.7167973E-3,-1.6259284E-4,2.2754464E-3,6.639426E-3],"split_indices":[14,8,9,6,27,0,0,0,0,0,0],"split_type":[0,0,0,0,0,0,0,0,0,0,0],"sum_hessian":[4.6E1,3.9E1,7E0,7E0,3.2E1,3E0,4E0,3E0,4E0,2.3E1,9E0],"tree_param":{"num_deleted":"0","num_feature":"64","num_nodes":"11","size_leaf_vector":"1"}},{"base_weights":[-2.6133867E-2,1.0298414E-1,-5.526023E-2,1.0451368E-2,7.562317E-4,-3.3374021E-3,-1.1565145E-1,2.860986E-3,-1.770602E-3,-3.4421626E-3,-1.1179206E-2],"categories":[],"categories_nodes":[],"categories_segments":[],"categories_sizes":[],"default_left":[0,0,0,0,0,0,0,0,0,0,0],"id":31,"left_children":[1,3,5,-1,-1,7,9,-1,-1,-1,-1],"loss_changes":[1.8244562E-1,8.069068E-2,1.2190567E-1,0E0,0E0,4.4757918E-2,7.5546145E-2,0E0,0E0,0E0,0E0],"parents":[2147483647,0,0,1,1,2,2,5,5,6,6],"right_children":[2,4,6,-1,-1,8,10,-1,-1,-1,-1],"split_conditions":[1.0936955E-2,3.892891E-2,1.51819885E-2,1.0451368E-2,7.562317E-4,1.7074255E-2,1.2539407E-2,2.860986E-3,-1.770602E-3,-3.4421626E-3,-1.1179206E-2],"split_indices":[34,0,11,0,0,4,36,0,0,0,0],"split_type":[0,0,0,0,0,0,0,0,0,0,0],"sum_hessian":[4.6E1,8E0,3.8E1,3E0,5E0,2.1E1,1.7E1,7E0,1.4E1,1.3E1,4E0],"tree_param":{"num_deleted":"0","num_feature":"64","num_nodes":"11","size_leaf_vector":"1"}},{"base_weights":[-4.104587E-3,-8.60298E-2,4.971209E-2,-7.80848E-3,-4.1644547E-2,1.5090329E-2,8.995689E-3,-4.2216545E-3,-2.1737852E-4,-2.8049469E-3,2.0968346E-3],"categories":[],"categories_nodes":[],"categories_segments":[],"categories_sizes":[],"default_left":[0,0,0,0,0,0,0,0,0,0,0],"id":32,"left_children":[1,3,5,-1,7,9,-1,-1,-1,-1,-1],"loss_changes":[2.1149704E-1,5.2646667E-2,1.280116E-1,0E0,2.0379402E-2,4.8220746E-2,0E0,0E0,0E0,0E0,0E0],"parents":[2147483647,0,0,1,1,2,2,4,4,5,5],"right_children":[2,4,6,-1,8,10,-1,-1,-1,-1,-1],"split_conditions":[6.7293155E-3,1.810856E-2,9.102339E-3,-7.80848E-3,1.51371695E-2,1.1351246E-2,8.995689E-3,-4.2216545E-3,-2.1737852E-4,-2.8049469E-3,2.0968346E-3],"split_indices":[42,19,54,0,7,10,0,0,0,0,0],"split_type":[0,0,0,0,0,0,0,0,0,0,0],"sum_hessian":[4.6E1,1.8E1,2.8E1,6E0,1.2E1,2.3E1,5E0,5E0,7E0,6E0,1.7E1],"tree_param":{"num_deleted":"0","num_feature":"64","num_nodes":"11","size_leaf_vector":"1"}},{"base_weights":[1.8269932E-2,7.2191544E-2,-7.2614424E-2,-3.5373956E-2,1.06466874E-1,-1.4857955E-1,1.9859556E-2,-4.3433122E-3,6.447333E-4,3.8402898E-3,1.1407778E-2,-1.9483399E-3,-9.499489E-3,2.9507598E-3,-1.1633998E-3],"categories":[],"categories_nodes":[],"categories_segments":[],"categories_sizes":[],"default_left":[0,0,0,0,0,0,0,0,0,0,0,0,0,0,0],"id":33,"left_children":[1,3,5,7,9,11,13,-1,-1,-1,-1,-1,-1,-1,-1],"loss_changes":[2.355718E-1,1.14371434E-1,1.293971E-1,2.1003805E-2,6.549293E-2,3.7987605E-2,1.657135E-2,0E0,0E0,0E0,0E0,0E0,0E0,0E0,0E0],"parents":[2147483647,0,0,1,1,2,2,3,3,4,4,5,5,6,6],"right_children":[2,4,6,8,10,12,14,-1,-1,-1,-1,-1,-1,-1,-1],"split_conditions":[6.78201E-3,1.5043851E-2,8.720231E-3,1.13067385E-2,6.7685833E-3,1.4412998E-2,5.6783864E-3,-4.3433122E-3,6.447333E-4,3.8402898E-3,1.1407778E-2,-1.9483399E-3,-9.499489E-3,2.9507598E-3,-1.1633998E-3],"split_indices":[42,11,6,23,42,20,25,0,0,0,0,0,0,0,0],"split_type":[0,0,0,0,0,0,0,0,0,0,0,0,0,0,0],"sum_hessian":[4.6E1,2.9E1,1.7E1,7E0,2.2E1,9E0,8E0,3E0,4E0,1.9E1,3E0,3E0,6E0,4E0,4E0],"tree_param":{"num_deleted":"0","num_feature":"64","num_nodes":"15","size_leaf_vector":"1"}},{"base_weights":[3.091297E-2,1.1095964E-2,3.5420174E-3,2.0143699E-2,-5.109615E-3,-7.947023E-4,3.2797928E-3],"categories":[],"categories_nodes":[],"categories_segments":[],"categories_sizes":[],"default_left":[0,0,0,0,0,0,0],"id":34,"left_children":[1,-1,3,5,-1,-1,-1],"loss_changes":[2.5015914E-1,0E0,7.753933E-2,6.3286334E-2,0E0,0E0,0E0],"parents":[2147483647,0,0,2,2,3,3],"right_children":[2,-1,4,6,-1,-1,-1],"split_conditions":[8.508757E-3,1.1095964E-2,1.1668021E-2,9.621032E-3,-5.109615E-3,-7.947023E-4,3.2797928E-3],"split_indices":[6,0,5,45,0,0,0],"split_type":[0,0,0,0,0,0,0],"sum_hessian":[4.7E1,5E0,4.2E1,3.7E1,5E0,2.1E1,1.6E1],"tree_param":{"num_deleted":"0","num_feature":"64","num_nodes":"7","size_leaf_vector":"1"}},{"base_weights":[5.804204E-3,-5.3929824E-2,3.459027E-2,-8.1986226E-2,2.5367972E-3,7.5754523E-3,8.123492E-2,-7.2421506E-4,-5.039419E-3,-1.0627939E-3,3.0343633E-3,5.096614E-3,7.178571E-4],"categories":[],"categories_nodes":[],"categories_segments":[],"categories_sizes":[],"default_left":[0,0,0,0,0,0,0,0,0,0,0,0,0],"id":35,"left_children":[1,3,5,7,-1,9,11,-1,-1,-1,-1,-1,-1],"loss_changes":[8.440182E-2,5.114437E-2,4.0967792E-2,1.5039511E-2,0E0,3.497821E-2,1.5146859E-2,0E0,0E0,0E0,0E0,0E0,0E0],"parents":[2147483647,0,0,1,1,2,2,3,3,5,5,6,6],"right_children":[2,4,6,8,-1,10,12,-1,-1,-1,-1,-1,-1],"split_conditions":[1.7087616E-2,1.8283563E-2,1.2580319E-2,2.142157E-2,2.5367972E-3,1.4394451E-2,1.2444572E-2,-7.2421506E-4,-5.039419E-3,-1.0627939E-3,3.0343633E-3,5.096614E-3,7.178571E-4],"split_indices":[4,47,18,31,0,44,57,0,0,0,0,0,0],"split_type":[0,0,0,0,0,0,0,0,0,0,0,0,0],"sum_hessian":[4.7E1,1.5E1,3.2E1,1.2E1,3E0,2.1E1,1.1E1,3E0,9E0,1.4E1,7E0,8E0,3E0],"tree_param":{"num_deleted":"0","num_feature":"64","num_nodes":"13","size_leaf_vector":"1"}},{"base_weights":[1.1584171E-2,-5.157369E-2,4.5845445E-2,-6.382653E-3,-1.8345186E-2,-3.9200645E-2,8.2418874E-2,3.8060994E-4,-2.494875E-3,1.01082E-3,-5.1330486E-3,9.02662E-3,2.5293145E-3],"categories":[],"categories_nodes":[],"categories_segments":[],"categories_sizes":[],"default_left":[0,0,0,0,0,0,0,0,0,0,0,0,0],"id":36,"left_children":[1,3,5,-1,7,9,11,-1,-1,-1,-1,-1,-1],"loss_changes":[1.0406625E-1,4.0634245E-2,9.965411E-2,0E0,1.10270325E-2,3.9781682E-2,5.9578076E-2,0E0,0E0,0E0,0E0,0E0,0E0],"parents":[2147483647,0,0,1,1,2,2,4,4,5,5,6,6],"right_children":[2,4,6,-1,8,10,12,-1,-1,-1,-1,-1,-1],"split_conditions":[1.4163396E-2,1.2675584E-2,2.3326715E-2,-6.382653E-3,1.828535E-2,5.5926335E-3,2.9531626E-2,3.8060994E-4,-2.494875E-3,1.01082E-3,-5.1330486E-3,9.02662E-3,2.5293145E-3],"split_indices":[49,28,32,0,19,25,3,0,0,0,0,0,0],"split_type":[0,0,0,0,0,0,0,0,0,0,0,0,0],"sum_hessian":[4.6E1,1.6E1,3E1,4E0,1.2E1,9E0,2.1E1,7E0,5E0,5E0,4E0,4E0,1.7E1],"tree_param":{"num_deleted":"0","num_feature":"64","num_nodes":"13","size_leaf_vector":"1"}},{"base_weights":[-2.6885329E-2,-4.746676E-3,-1.0595034E-2,1.0440794E-2,-7.771735E-3,6.3502192E-3,-4.919923E-4],"categories":[],"categories_nodes":[],"categories_segments":[],"categories_sizes":[],"default_left":[0,0,0,0,0,0,0],"id":37,"left_children":[1,3,-1,5,-1,-1,-1],"loss_changes":[1.9150573E-1,1.0003137E-1,0E0,9.580907E-2,0E0,0E0,0E0],"parents":[2147483647,0,0,1,1,3,3],"right_children":[2,4,-1,6,-1,-1,-1],"split_conditions":[9.140461E-3,1.5478667E-2,-1.0595034E-2,1.7891629E-2,-7.771735E-3,6.3502192E-3,-4.919923E-4],"split_indices":[54,11,0,1,0,0,0],"split_type":[0,0,0,0,0,0,0],"sum_hessian":[4.6E1,4.2E1,4E0,3.9E1,3E0,5E0,3.4E1],"tree_param":{"num_deleted":"0","num_feature":"64","num_nodes":"7","size_leaf_vector":"1"}},{"base_weights":[3.230672E-2,-1.1171868E-1,5.6108452E-2,-8.129281E-3,-1.6461042E-3,7.561616E-2,-4.9735145E-3,-2.1800443E-3,4.3708845E-3],"categories":[],"categories_nodes":[],"categories_segments":[],"categories_sizes":[],"default_left":[0,0,0,0,0,0,0,0,0],"id":38,"left_children":[1,3,5,-1,-1,7,-1,-1,-1],"loss_changes":[1.6738689E-1,2.270434E-2,1.3195594E-1,0E0,0E0,5.5868402E-2,0E0,0E0,0E0],"parents":[2147483647,0,0,1,1,2,2,5,5],"right_children":[2,4,6,-1,-1,8,-1,-1,-1],"split_conditions":[1.2308975E-2,3.9625756E-2,2.3852859E-2,-8.129281E-3,-1.6461042E-3,5.6632035E-3,-4.9735145E-3,-2.1800443E-3,4.3708845E-3],"split_indices":[18,0,32,0,0,22,0,0,0],"split_type":[0,0,0,0,0,0,0,0,0],"sum_hessian":[4.6E1,6E0,4E1,3E0,3E0,3.6E1,4E0,3E0,3.3E1],"tree_param":{"num_deleted":"0","num_feature":"64","num_nodes":"9","size_leaf_vector":"1"}},{"base_weights":[4.4267536E-3,3.7133425E-2,-6.1263263E-2,5.8805674E-2,-4.582892E-3,4.793666E-3,-8.607855E-3,8.3277404E-4,5.6808987E-3,3.2412794E-3,-1.2910751E-3],"categories":[],"categories_nodes":[],"categories_segments":[],"categories_sizes":[],"default_left":[0,0,0,0,0,0,0,0,0,0,0],"id":39,"left_children":[1,3,5,7,-1,9,-1,-1,-1,-1,-1],"loss_changes":[1.03254505E-1,9.470828E-2,1.1803015E-1,6.2797405E-2,0E0,2.1890655E-2,0E0,0E0,0E0,0E0,0E0],"parents":[2147483647,0,0,1,1,2,2,3,3,5,5],"right_children":[2,4,6,8,-1,10,-1,-1,-1,-1,-1],"split_conditions":[4.0080052E-2,5.936618E-3,1.2433535E-2,9.691357E-3,-4.582892E-3,3.0052874E-2,-8.607855E-3,8.3277404E-4,5.6808987E-3,3.2412794E-3,-1.2910751E-3],"split_indices":[63,22,30,33,0,3,0,0,0,0,0],"split_type":[0,0,0,0,0,0,0,0,0,0,0],"sum_hessian":[4.6E1,3.1E1,1.5E1,2.7E1,4E0,1E1,5E0,1.6E1,1.1E1,3E0,7E0],"tree_param":{"num_deleted":"0","num_feature":"64","num_nodes":"11","size_leaf_vector":"1"}},{"base_weights":[2.2370394E-3,1.5894046E-2,-7.427465E-3,-1.9201178E-2,9.246961E-2,-3.1710472E-3,1.3109333E-3,6.556493E-3,9.5338153E-4],"categories":[],"categories_nodes":[],"categories_segments":[],"categories_sizes":[],"default_left":[0,0,0,0,0,0,0,0,0],"id":40,"left_children":[1,3,-1,5,7,-1,-1,-1,-1],"loss_changes":[9.9147685E-2,1.20022744E-1,0E0,6.3924916E-2,3.7227996E-2,0E0,0E0,0E0,0E0],"parents":[2147483647,0,0,1,1,3,3,4,4],"right_children":[2,4,-1,6,8,-1,-1,-1,-1],"split_conditions":[1.48479305E-2,9.691357E-3,-7.427465E-3,3.9579347E-2,5.704893E-3,-3.1710472E-3,1.3109333E-3,6.556493E-3,9.5338153E-4],"split_indices":[20,33,0,0,25,0,0,0,0],"split_type":[0,0,0,0,0,0,0,0,0],"sum_hessian":[4.6E1,4.3E1,3E0,3E1,1.3E1,1.5E1,1.5E1,8E0,5E0],"tree_param":{"num_deleted":"0","num_feature":"64","num_nodes":"9","size_leaf_vector":"1"}},{"base_weights":[2.5998283E-2,5.1468212E-2,-1.0460114E-1,-3.3382647E-2,7.047847E-2,-1.6979445E-3,-7.009735E-3,-3.6671204E-3,2.6308448E-4,6.5700947E-3,2.1078554E-3],"categories":[],"categories_nodes":[],"categories_segments":[],"categories_sizes":[],"default_left":[0,0,0,0,0,0,0,0,0,0,0],"id":41,"left_children":[1,3,5,7,9,-1,-1,-1,-1,-1,-1],"loss_changes":[1.6172245E-1,6.687425E-2,1.5354425E-2,1.273965E-2,5.1399812E-2,0E0,0E0,0E0,0E0,0E0,0E0],"parents":[2147483647,0,0,1,1,2,2,3,3,4,4],"right_children":[2,4,6,8,10,-1,-1,-1,-1,-1,-1],"split_conditions":[1.8366843E-2,1.9881647E-2,1.1583851E-2,8.619687E-3,8.5996315E-3,-1.6979445E-3,-7.009735E-3,-3.6671204E-3,2.6308448E-4,6.5700947E-3,2.1078554E-3],"split_indices":[14,8,9,6,6,0,0,0,0,0,0],"split_type":[0,0,0,0,0,0,0,0,0,0,0],"sum_hessian":[4.6E1,3.9E1,7E0,7E0,3.2E1,3E0,4E0,3E0,4E0,9E0,2.3E1],"tree_param":{"num_deleted":"0","num_feature":"64","num_nodes":"11","size_leaf_vector":"1"}},{"base_weights":[1.671014E-3,-5.0270714E-2,4.0567633E-2,3.0967023E-3,-8.0315016E-2,1.9415028E-2,9.102227E-2,-5.452792E-3,-4.7237627E-4,-5.200126E-4,3.016216E-3,1.4797278E-3,6.097999E-3],"categories":[],"categories_nodes":[],"categories_segments":[],"categories_sizes":[],"default_left":[0,0,0,0,0,0,0,0,0,0,0,0,0],"id":42,"left_children":[1,3,5,-1,7,9,11,-1,-1,-1,-1,-1,-1],"loss_changes":[9.9016525E-2,7.576761E-2,2.8115708E-2,0E0,3.359513E-2,2.6241548E-2,1.1594117E-2,0E0,0E0,0E0,0E0,0E0,0E0],"parents":[2147483647,0,0,1,1,2,2,4,4,5,5,6,6],"right_children":[2,4,6,-1,8,10,12,-1,-1,-1,-1,-1,-1],"split_conditions":[1.7172003E-2,2.259257E-2,1.7533433E-2,3.0967023E-3,5.8917804E-3,1.2498687E-2,1.52384285E-2,-5.452792E-3,-4.7237627E-4,-5.200126E-4,3.016216E-3,1.4797278E-3,6.097999E-3],"split_indices":[4,16,4,0,22,36,7,0,0,0,0,0,0],"split_type":[0,0,0,0,0,0,0,0,0,0,0,0,0],"sum_hessian":[4.7E1,2E1,2.7E1,4E0,1.6E1,2E1,7E0,1.1E1,5E0,1.2E1,8E0,3E0,4E0],"tree_param":{"num_deleted":"0","num_feature":"64","num_nodes":"13","size_leaf_vector":"1"}},{"base_weights":[-3.105842E-2,-9.10595E-3,-1.0681899E-2,-1.0066857E-1,1.4698895E-2,-1.564249E-3,-7.4959225E-3,-3.0384792E-4,7.0284703E-3],"categories":[],"categories_nodes":[],"categories_segments":[],"categories_sizes":[],"default_left":[0,0,0,0,0,0,0,0,0],"id":43,"left_children":[1,3,-1,5,7,-1,-1,-1,-1],"loss_changes":[1.8643402E-1,9.520397E-2,0E0,2.6064001E-2,9.238158E-2,0E0,0E0,0E0,0E0],"parents":[2147483647,0,0,1,1,3,3,4,4],"right_children":[2,4,-1,6,8,-1,-1,-1,-1],"split_conditions":[9.140461E-3,1.0966936E-2,-1.0681899E-2,2.1623382E-2,5.950013E-3,-1.564249E-3,-7.4959225E-3,-3.0384792E-4,7.0284703E-3],"split_indices":[54,29,0,31,22,0,0,0,0],"split_type":[0,0,0,0,0,0,0,0,0],"sum_hessian":[4.6E1,4.2E1,4E0,8E0,3.4E1,4E0,4E0,3E1,4E0],"tree_param":{"num_deleted":"0","num_feature":"64","num_nodes":"9","size_leaf_vector":"1"}},{"base_weights":[3.0953657E-2,-1.1089237E-1,5.4416303E-2,-7.724762E-3,-1.9783208E-3,7.3856525E-2,-5.0162296E-3,2.0632904E-3,6.222543E-3],"categories":[],"categories_nodes":[],"categories_segments":[],"categories_sizes":[],"default_left":[0,0,0,0,0,0,0,0,0],"id":44,"left_children":[1,3,5,-1,-1,7,-1,-1,-1],"loss_changes":[1.6245426E-1,1.565729E-2,1.3074568E-1,0E0,0E0,5.587393E-2,0E0,0E0,0E0],"parents":[2147483647,0,0,1,1,2,2,5,5],"right_children":[2,4,6,-1,-1,8,-1,-1,-1],"split_conditions":[1.2308975E-2,3.9625756E-2,2.3852859E-2,-7.724762E-3,-1.9783208E-3,5.6754327E-3,-5.0162296E-3,2.0632904E-3,6.222543E-3],"split_indices":[18,0,32,0,0,38,0,0,0],"split_type":[0,0,0,0,0,0,0,0,0],"sum_hessian":[4.6E1,6E0,4E1,3E0,3E0,3.6E1,4E0,2.3E1,1.3E1],"tree_param":{"num_deleted":"0","num_feature":"64","num_nodes":"9","size_leaf_vector":"1"}},{"base_weights":[2.8087903E-2,1.13987245E-1,-2.7251275E-2,1.3638419E-2,5.3461052E-2,-2.5748396E-3,-6.276394E-3,-1.6608689E-3,4.4000125E-3,-1.4900531E-3,2.950301E-3],"categories":[],"categories_nodes":[],"categories_segments":[],"categories_sizes":[],"default_left":[0,0,0,0,0,0,0,0,0,0,0],"id":45,"left_children":[1,3,5,-1,7,9,-1,-1,-1,-1,-1],"loss_changes":[2.3127905E-1,1.6801545E-1,7.2430275E-2,0E0,4.7830176E-2,4.3673795E-2,0E0,0E0,0E0,0E0,0E0],"parents":[2147483647,0,0,1,1,2,2,4,4,5,5],"right_children":[2,4,6,-1,8,10,-1,-1,-1,-1,-1],"split_conditions":[1.7084464E-2,8.508757E-3,1.1655368E-2,1.3638419E-2,8.682427E-3,1.7206341E-2,-6.276394E-3,-1.6608689E-3,4.4000125E-3,-1.4900531E-3,2.950301E-3],"split_indices":[4,6,5,0,27,59,0,0,0,0,0],"split_type":[0,0,0,0,0,0,0,0,0,0,0],"sum_hessian":[4.7E1,1.8E1,2.9E1,4E0,1.4E1,2.4E1,5E0,4E0,1E1,1.7E1,7E0],"tree_param":{"num_deleted":"0","num_feature":"64","num_nodes":"11","size_leaf_vector":"1"}},{"base_weights":[9.177428E-3,9.7366445E-2,-1.7288968E-2,2.804422E-2,8.747214E-3,-3.5698127E-2,6.670715E-2,-6.8922345E-5,2.5227915E-3,-6.2614016E-4,-5.0380914E-3,-5.4522196E-4,6.3820975E-3],"categories":[],"categories_nodes":[],"categories_segments":[],"categories_sizes":[],"default_left":[0,0,0,0,0,0,0,0,0,0,0,0,0],"id":46,"left_children":[1,3,5,7,-1,9,11,-1,-1,-1,-1,-1,-1],"loss_changes":[1.11383505E-1,5.4250382E-2,5.9594333E-2,4.6854164E-3,0E0,4.5482222E-2,3.449659E-2,0E0,0E0,0E0,0E0,0E0,0E0],"parents":[2147483647,0,0,1,1,2,2,3,3,5,5,6,6],"right_children":[2,4,6,8,-1,10,12,-1,-1,-1,-1,-1,-1],"split_conditions":[2.2706136E-2,1.4404232E-2,1.4880242E-2,8.5394615E-3,8.747214E-3,2.3020407E-2,2.4879618E-2,-6.8922345E-5,2.5227915E-3,-6.2614016E-4,-5.0380914E-3,-5.4522196E-4,6.3820975E-3],"split_indices":[16,58,20,6,0,16,12,0,0,0,0,0,0],"split_type":[0,0,0,0,0,0,0,0,0,0,0,0,0],"sum_hessian":[4.6E1,1E1,3.6E1,6E0,4E0,3E1,6E0,3E0,3E0,2.3E1,7E0,3E0,3E0],"tree_param":{"num_deleted":"0","num_feature":"64","num_nodes":"13","size_leaf_vector":"1"}},{"base_weights":[-3.2109663E-2,7.72514E-2,-6.767142E-2,9.764592E-3,1.6205493E-2,-1.0138821E-1,3.0131068E-2,1.7991662E-3,-8.7563135E-4,-3.474742E-3,-9.129216E-3,-2.6092744E-3,4.6853176E-3],"categories":[],"categories_nodes":[],"categories_segments":[],"categories_sizes":[],"default_left":[0,0,0,0,0,0,0,0,0,0,0,0,0],"id":47,"left_children":[1,3,5,-1,7,9,11,-1,-1,-1,-1,-1,-1],"loss_changes":[1.8801406E-1,8.330583E-2,1.2176804E-1,0E0,6.632004E-3,5.723101E-2,5.7223096E-2,0E0,0E0,0E0,0E0,0E0,0E0],"parents":[2147483647,0,0,1,1,2,2,4,4,5,5,6,6],"right_children":[2,4,6,-1,8,10,12,-1,-1,-1,-1,-1,-1],"split_conditions":[1.0959509E-2,3.892891E-2,8.744808E-3,9.764592E-3,2.350113E-2,1.2539407E-2,2.248907E-2,1.7991662E-3,-8.7563135E-4,-3.474742E-3,-9.129216E-3,-2.6092744E-3,4.6853176E-3],"split_indices":[34,0,6,0,32,36,48,0,0,0,0,0,0],"split_type":[0,0,0,0,0,0,0,0,0,0,0,0,0],"sum_hessian":[4.6E1,1.1E1,3.5E1,3E0,8E0,2.6E1,9E0,5E0,3E0,2E1,6E0,4E0,5E0],"tree_param":{"num_deleted":"0","num_feature":"64","num_nodes":"13","size_leaf_vector":"1"}},{"base_weights":[1.4207214E-2,6.6544704E-2,-7.381122E-2,4.134966E-2,1.0998753E-2,-1.43239E-1,1.1532015E-2,3.3100115E-3,-2.8330348E-3,-2.0497404E-3,-9.060077E-3,2.3640885E-3,-2.2487813E-3],"categories":[],"categories_nodes":[],"categories_segments":[],"categories_sizes":[],"default_left":[0,0,0,0,0,0,0,0,0,0,0,0,0],"id":48,"left_children":[1,3,5,7,-1,9,11,-1,-1,-1,-1,-1,-1],"loss_changes":[2.2142494E-1,1.0687463E-1,1.083053E-1,6.9512494E-2,0E0,3.138618E-2,2.0307735E-2,0E0,0E0,0E0,0E0,0E0,0E0],"parents":[2147483647,0,0,1,1,2,2,3,3,5,5,6,6],"right_children":[2,4,6,8,-1,10,12,-1,-1,-1,-1,-1,-1],"split_conditions":[6.78201E-3,6.7685833E-3,8.720231E-3,6.741627E-3,1.0998753E-2,1.4412998E-2,5.7313377E-3,3.3100115E-3,-2.8330348E-3,-2.0497404E-3,-9.060077E-3,2.3640885E-3,-2.2487813E-3],"split_indices":[42,42,6,42,0,20,38,0,0,0,0,0,0],"split_type":[0,0,0,0,0,0,0,0,0,0,0,0,0],"sum_hessian":[4.6E1,2.9E1,1.7E1,2.6E1,3E0,9E0,8E0,2.1E1,5E0,3E0,6E0,5E0,3E0],"tree_param":{"num_deleted":"0","num_feature":"64","num_nodes":"13","size_leaf_vector":"1"}},{"base_weights":[-5.2355453E-3,-8.778963E-2,4.903215E-2,-7.661979E-3,-4.5794304E-2,1.549472E-2,8.750493E-3,6.378535E-4,-3.2317713E-3,3.8587847E-3,-1.0084623E-3],"categories":[],"categories_nodes":[],"categories_segments":[],"categories_sizes":[],"default_left":[0,0,0,0,0,0,0,0,0,0,0],"id":49,"left_children":[1,3,5,-1,7,9,-1,-1,-1,-1,-1],"loss_changes":[2.1486549E-1,4.5205742E-2,1.1981236E-1,0E0,1.5165815E-2,5.4351486E-2,0E0,0E0,0E0,0E0,0E0],"parents":[2147483647,0,0,1,1,2,2,4,4,5,5],"right_children":[2,4,6,-1,8,10,-1,-1,-1,-1,-1],"split_conditions":[6.7293155E-3,1.810856E-2,9.102339E-3,-7.661979E-3,2.9380208E-2,1.14770485E-2,8.750493E-3,6.378535E-4,-3.2317713E-3,3.8587847E-3,-1.0084623E-3],"split_indices":[42,19,54,0,3,9,0,0,0,0,0],"split_type":[0,0,0,0,0,0,0,0,0,0,0],"sum_hessian":[4.6E1,1.8E1,2.8E1,6E0,1.2E1,2.3E1,5E0,3E0,9E0,8E0,1.5E1],"tree_param":{"num_deleted":"0","num_feature":"64","num_nodes":"11","size_leaf_vector":"1"}},{"base_weights":[3.1687118E-2,5.6741808E-2,-9.75472E-2,-2.836372E-2,7.5654E-2,-1.7864633E-3,-6.374606E-3,-3.2893945E-3,3.6241798E-4,1.5639041E-3,5.544813E-3],"categories":[],"categories_nodes":[],"categories_segments":[],"categories_sizes":[],"default_left":[0,0,0,0,0,0,0,0,0,0,0],"id":50,"left_children":[1,3,5,7,9,-1,-1,-1,-1,-1,-1],"loss_changes":[1.577175E-1,6.652711E-2,1.0253862E-2,1.1138875E-2,4.8140332E-2,0E0,0E0,0E0,0E0,0E0,0E0],"parents":[2147483647,0,0,1,1,2,2,3,3,4,4],"right_children":[2,4,6,8,10,-1,-1,-1,-1,-1,-1],"split_conditions":[1.8366843E-2,1.9881647E-2,1.1583851E-2,8.619687E-3,1.1564369E-2,-1.7864633E-3,-6.374606E-3,-3.2893945E-3,3.6241798E-4,1.5639041E-3,5.544813E-3],"split_indices":[14,8,9,6,9,0,0,0,0,0,0],"split_type":[0,0,0,0,0,0,0,0,0,0,0],"sum_hessian":[4.6E1,3.9E1,7E0,7E0,3.2E1,3E0,4E0,3E0,4E0,1.5E1,1.7E1],"tree_param":{"num_deleted":"0","num_feature":"64","num_nodes":"11","size_leaf_vector":"1"}},{"base_weights":[-3.209166E-3,-8.522987E-2,5.06392E-2,-7.3328614E-3,-4.5597464E-2,8.7164834E-2,-5.6136187E-2,-4.0770764E-3,-6.469868E-4,2.2879934E-3,1.0939486E-2,-4.4099106E-3,-1.012303E-4],"categories":[],"categories_nodes":[],"categories_segments":[],"categories_sizes":[],"default_left":[0,0,0,0,0,0,0,0,0,0,0,0,0],"id":51,"left_children":[1,3,5,-1,7,9,11,-1,-1,-1,-1,-1,-1],"loss_changes":[2.1189998E-1,3.9568573E-2,1.1799422E-1,0E0,1.4204945E-2,1.0988656E-1,1.370085E-2,0E0,0E0,0E0,0E0,0E0,0E0],"parents":[2147483647,0,0,1,1,2,2,4,4,5,5,6,6],"right_children":[2,4,6,-1,8,10,12,-1,-1,-1,-1,-1,-1],"split_conditions":[6.7293155E-3,1.810856E-2,5.856564E-3,-7.3328614E-3,1.51371695E-2,9.093857E-3,2.2935735E-2,-4.0770764E-3,-6.469868E-4,2.2879934E-3,1.0939486E-2,-4.4099106E-3,-1.012303E-4],"split_indices":[42,19,26,0,7,54,16,0,0,0,0,0,0],"split_type":[0,0,0,0,0,0,0,0,0,0,0,0,0],"sum_hessian":[4.6E1,1.8E1,2.8E1,6E0,1.2E1,2.1E1,7E0,5E0,7E0,1.7E1,4E0,4E0,3E0],"tree_param":{"num_deleted":"0","num_feature":"64","num_nodes":"13","size_leaf_vector":"1"}},{"base_weights":[3.3101274E-3,-5.0173685E-2,4.3304767E-2,2.3926338E-3,-8.3797716E-2,-1.1702243E-3,5.5398166E-2,-5.329546E-3,-6.1672454E-4,1.9635034E-3,6.311056E-3],"categories":[],"categories_nodes":[],"categories_segments":[],"categories_sizes":[],"default_left":[0,0,0,0,0,0,0,0,0,0,0],"id":52,"left_children":[1,3,5,-1,7,-1,9,-1,-1,-1,-1],"loss_changes":[1.0484792E-1,7.322681E-2,2.388532E-2,0E0,2.4747275E-2,0E0,2.245704E-2,0E0,0E0,0E0,0E0],"parents":[2147483647,0,0,1,1,2,2,4,4,6,6],"right_children":[2,4,6,-1,8,-1,10,-1,-1,-1,-1],"split_conditions":[1.7172003E-2,2.2596834E-2,1.4961035E-2,2.3926338E-3,5.8917804E-3,-1.1702243E-3,1.7581394E-2,-5.329546E-3,-6.1672454E-4,1.9635034E-3,6.311056E-3],"split_indices":[4,16,11,0,22,0,4,0,0,0,0],"split_type":[0,0,0,0,0,0,0,0,0,0,0],"sum_hessian":[4.7E1,2E1,2.7E1,5E0,1.5E1,4E0,2.3E1,1.1E1,4E0,2E1,3E0],"tree_param":{"num_deleted":"0","num_feature":"64","num_nodes":"11","size_leaf_vector":"1"}},{"base_weights":[1.6978616E-2,6.705143E-2,-6.741934E-2,4.278229E-2,1.0705265E-2,-1.3001478E-1,9.62218E-3,3.3895273E-3,-2.8022514E-3,-2.5342025E-3,-8.722729E-3,2.2614354E-3,-2.309658E-3],"categories":[],"categories_nodes":[],"categories_segments":[],"categories_sizes":[],"default_left":[0,0,0,0,0,0,0,0,0,0,0,0,0],"id":53,"left_children":[1,3,5,7,-1,9,11,-1,-1,-1,-1,-1,-1],"loss_changes":[2.0314462E-1,9.790622E-2,8.8055074E-2,7.052979E-2,0E0,2.6412353E-2,1.9975774E-2,0E0,0E0,0E0,0E0,0E0,0E0],"parents":[2147483647,0,0,1,1,2,2,3,3,5,5,6,6],"right_children":[2,4,6,8,-1,10,12,-1,-1,-1,-1,-1,-1],"split_conditions":[6.78201E-3,6.7685833E-3,8.720231E-3,6.741627E-3,1.0705265E-2,1.0998934E-2,5.7313377E-3,3.3895273E-3,-2.8022514E-3,-2.5342025E-3,-8.722729E-3,2.2614354E-3,-2.309658E-3],"split_indices":[42,42,6,42,0,29,38,0,0,0,0,0,0],"split_type":[0,0,0,0,0,0,0,0,0,0,0,0,0],"sum_hessian":[4.6E1,2.9E1,1.7E1,2.6E1,3E0,9E0,8E0,2.1E1,5E0,4E0,5E0,5E0,3E0],"tree_param":{"num_deleted":"0","num_feature":"64","num_nodes":"13","size_leaf_vector":"1"}},{"base_weights":[3.3135437E-3,1.6768478E-2,-7.2759553E-3,-1.8239144E-2,9.3087606E-2,-3.1661224E-3,1.3992053E-3,6.626858E-3,9.199339E-4],"categories":[],"categories_nodes":[],"categories_segments":[],"categories_sizes":[],"default_left":[0,0,0,0,0,0,0,0,0],"id":54,"left_children":[1,3,-1,5,7,-1,-1,-1,-1],"loss_changes":[9.655921E-2,1.1925489E-1,0E0,6.637282E-2,3.881173E-2,0E0,0E0,0E0,0E0],"parents":[2147483647,0,0,1,1,3,3,4,4],"right_children":[2,4,-1,6,8,-1,-1,-1,-1],"split_conditions":[1.48479305E-2,9.691357E-3,-7.2759553E-3,3.9579347E-2,5.704893E-3,-3.1661224E-3,1.3992053E-3,6.626858E-3,9.199339E-4],"split_indices":[20,33,0,0,25,0,0,0,0],"split_type":[0,0,0,0,0,0,0,0,0],"sum_hessian":[4.6E1,4.3E1,3E0,3E1,1.3E1,1.5E1,1.5E1,8E0,5E0],"tree_param":{"num_deleted":"0","num_feature":"64","num_nodes":"9","size_leaf_vector":"1"}},{"base_weights":[3.014758E-2,1.12434216E-1,-2.2972208E-2,1.4244965E-2,6.2290803E-2,-1.7490864E-4,-5.7066125E-3,-1.5868376E-3,4.8139025E-3,-1.3384455E-3,2.9841727E-3],"categories":[],"categories_nodes":[],"categories_segments":[],"categories_sizes":[],"default_left":[0,0,0,0,0,0,0,0,0,0,0],"id":55,"left_children":[1,3,5,-1,7,9,-1,-1,-1,-1,-1],"loss_changes":[2.123932E-1,1.4656515E-1,6.2326115E-2,0E0,5.4187346E-2,4.1394494E-2,0E0,0E0,0E0,0E0,0E0],"parents":[2147483647,0,0,1,1,2,2,4,4,5,5],"right_children":[2,4,6,-1,8,10,-1,-1,-1,-1,-1],"split_conditions":[1.7084464E-2,1.2129403E-2,1.1655368E-2,1.4244965E-2,1.8001799E-2,1.7206341E-2,-5.7066125E-3,-1.5868376E-3,4.8139025E-3,-1.3384455E-3,2.9841727E-3],"split_indices":[4,36,5,0,19,59,0,0,0,0,0],"split_type":[0,0,0,0,0,0,0,0,0,0,0],"sum_hessian":[4.7E1,1.8E1,2.9E1,3E0,1.5E1,2.4E1,5E0,4E0,1.1E1,1.7E1,7E0],"tree_param":{"num_deleted":"0","num_feature":"64","num_nodes":"11","size_leaf_vector":"1"}},{"base_weights":[3.4671787E-2,-1.05259426E-1,5.7716828E-2,-7.1932124E-3,-2.0169877E-3,7.641714E-2,-4.6104435E-3,1.4896629E-3,5.727889E-3],"categories":[],"categories_nodes":[],"categories_segments":[],"categories_sizes":[],"default_left":[0,0,0,0,0,0,0,0,0],"id":56,"left_children":[1,3,5,-1,-1,7,-1,-1,-1],"loss_changes":[1.576371E-1,1.1740036E-2,1.2199631E-1,0E0,0E0,6.2382758E-2,0E0,0E0,0E0],"parents":[2147483647,0,0,1,1,2,2,5,5],"right_children":[2,4,6,-1,-1,8,-1,-1,-1],"split_conditions":[1.2308975E-2,2.1443043E-2,2.3852859E-2,-7.1932124E-3,-2.0169877E-3,1.1047236E-2,-4.6104435E-3,1.4896629E-3,5.727889E-3],"split_indices":[18,2,32,0,0,34,0,0,0],"split_type":[0,0,0,0,0,0,0,0,0],"sum_hessian":[4.6E1,6E0,4E1,3E0,3E0,3.6E1,4E0,1.7E1,1.9E1],"tree_param":{"num_deleted":"0","num_feature":"64","num_nodes":"9","size_leaf_vector":"1"}},{"base_weights":[-3.229574E-2,7.2367586E-2,-6.6286415E-2,9.305409E-3,1.3775365E-2,-9.7809225E-2,2.5453825E-2,1.8698132E-3,-1.254991E-3,-2.2644629E-3,-6.840296E-3,-2.6359186E-3,4.3177507E-3],"categories":[],"categories_nodes":[],"categories_segments":[],"categories_sizes":[],"default_left":[0,0,0,0,0,0,0,0,0,0,0,0,0],"id":57,"left_children":[1,3,5,-1,7,9,11,-1,-1,-1,-1,-1,-1],"loss_changes":[1.7200308E-1,7.740807E-2,1.0659839E-1,0E0,9.20304E-3,4.910299E-2,5.2160293E-2,0E0,0E0,0E0,0E0,0E0,0E0],"parents":[2147483647,0,0,1,1,2,2,4,4,5,5,6,6],"right_children":[2,4,6,-1,8,10,12,-1,-1,-1,-1,-1,-1],"split_conditions":[1.0959509E-2,3.892891E-2,8.744808E-3,9.305409E-3,2.350113E-2,1.0567152E-2,2.248907E-2,1.8698132E-3,-1.254991E-3,-2.2644629E-3,-6.840296E-3,-2.6359186E-3,4.3177507E-3],"split_indices":[34,0,6,0,32,46,48,0,0,0,0,0,0],"split_type":[0,0,0,0,0,0,0,0,0,0,0,0,0],"sum_hessian":[4.6E1,1.1E1,3.5E1,3E0,8E0,2.6E1,9E0,5E0,3E0,1.2E1,1.4E1,4E0,5E0],"tree_param":{"num_deleted":"0","num_feature":"64","num_nodes":"13","size_leaf_vector":"1"}},{"base_weights":[-3.0117998E-2,-7.996675E-3,-1.0716889E-2,6.822617E-3,-7.7095213E-3,6.3739307E-3,-7.0280995E-4],"categories":[],"categories_nodes":[],"categories_segments":[],"categories_sizes":[],"default_left":[0,0,0,0,0,0,0],"id":58,"left_children":[1,3,-1,5,-1,-1,-1],"loss_changes":[1.8981972E-1,9.421095E-2,0E0,1.0255804E-1,0E0,0E0,0E0],"parents":[2147483647,0,0,1,1,3,3],"right_children":[2,4,-1,6,-1,-1,-1],"split_conditions":[9.140461E-3,1.5478667E-2,-1.0716889E-2,1.7891629E-2,-7.7095213E-3,6.3739307E-3,-7.0280995E-4],"split_indices":[54,11,0,1,0,0,0],"split_type":[0,0,0,0,0,0,0],"sum_hessian":[4.6E1,4.2E1,4E0,3.9E1,3E0,5E0,3.4E1],"tree_param":{"num_deleted":"0","num_feature":"64","num_nodes":"7","size_leaf_vector":"1"}},{"base_weights":[1.3616904E-2,-4.795735E-2,4.6944175E-2,-5.7821157E-3,-1.8235644E-2,-2.8777799E-2,8.4372625E-2,5.1410793E-4,-2.6610054E-3,-4.065431E-3,1.4274659E-3,7.3961723E-3,2.1015632E-3],"categories":[],"categories_nodes":[],"categories_segments":[],"categories_sizes":[],"default_left":[0,0,0,0,0,0,0,0,0,0,0,0,0],"id":59,"left_children":[1,3,5,-1,7,9,11,-1,-1,-1,-1,-1,-1],"loss_changes":[9.87001E-2,3.209031E-2,9.02869E-2,0E0,1.35170575E-2,3.5447147E-2,5.028999E-2,0E0,0E0,0E0,0E0,0E0,0E0],"parents":[2147483647,0,0,1,1,2,2,4,4,5,5,6,6],"right_children":[2,4,6,-1,8,10,12,-1,-1,-1,-1,-1,-1],"split_conditions":[1.4163396E-2,1.2675584E-2,2.3400798E-2,-5.7821157E-3,1.828535E-2,1.4534247E-2,2.3591572E-2,5.1410793E-4,-2.6610054E-3,-4.065431E-3,1.4274659E-3,7.3961723E-3,2.1015632E-3],"split_indices":[49,28,32,0,19,44,32,0,0,0,0,0,0],"split_type":[0,0,0,0,0,0,0,0,0,0,0,0,0],"sum_hessian":[4.6E1,1.6E1,3E1,4E0,1.2E1,1E1,2E1,7E0,5E0,5E0,5E0,7E0,1.3E1],"tree_param":{"num_deleted":"0","num_feature":"64","num_nodes":"13","size_leaf_vector":"1"}},{"base_weights":[-3.1923346E-2,7.0628725E-2,-6.522061E-2,1.3631367E-2,9.0607805E-3,-1.282841E-2,-1.1690012E-1,2.1142478E-3,-1.6378429E-3,2.4842648E-3,-2.2751417E-3,-7.3854937E-3,-3.6263975E-4],"categories":[],"categories_nodes":[],"categories_segments":[],"categories_sizes":[],"default_left":[0,0,0,0,0,0,0,0,0,0,0,0,0],"id":60,"left_children":[1,3,5,7,-1,9,11,-1,-1,-1,-1,-1,-1],"loss_changes":[1.650975E-1,7.31677E-2,9.59741E-2,1.3347824E-2,0E0,4.1070208E-2,5.97364E-2,0E0,0E0,0E0,0E0,0E0,0E0],"parents":[2147483647,0,0,1,1,2,2,3,3,5,5,6,6],"right_children":[2,4,6,8,-1,10,12,-1,-1,-1,-1,-1,-1],"split_conditions":[1.0959509E-2,1.8182065E-2,1.51819885E-2,2.350113E-2,9.0607805E-3,1.7074255E-2,3.994894E-2,2.1142478E-3,-1.6378429E-3,2.4842648E-3,-2.2751417E-3,-7.3854937E-3,-3.6263975E-4],"split_indices":[34,14,11,32,0,4,63,0,0,0,0,0,0],"split_type":[0,0,0,0,0,0,0,0,0,0,0,0,0],"sum_hessian":[4.6E1,1.1E1,3.5E1,8E0,3E0,1.8E1,1.7E1,5E0,3E0,6E0,1.2E1,1.3E1,4E0],"tree_param":{"num_deleted":"0","num_feature":"64","num_nodes":"13","size_leaf_vector":"1"}},{"base_weights":[2.0179274E-3,-4.5764763E-2,5.170748E-2,-8.3142914E-2,2.9923387E-2,1.7240185E-2,1.18487045E-1,-5.524099E-3,-7.303812E-4,-1.0890622E-3,2.9702955E-3,1.748253E-3,-1.0541464E-3,2.8878928E-3,7.16865E-3],"categories":[],"categories_nodes":[],"categories_segments":[],"categories_sizes":[],"default_left":[0,0,0,0,0,0,0,0,0,0,0,0,0,0,0],"id":61,"left_children":[1,3,5,7,9,11,13,-1,-1,-1,-1,-1,-1,-1,-1],"loss_changes":[1.163328E-1,7.3214985E-2,5.319833E-2,3.023886E-2,1.5013381E-2,1.2284797E-2,3.8095042E-3,0E0,0E0,0E0,0E0,0E0,0E0,0E0,0E0],"parents":[2147483647,0,0,1,1,2,2,3,3,4,4,5,5,6,6],"right_children":[2,4,6,8,10,12,14,-1,-1,-1,-1,-1,-1,-1,-1],"split_conditions":[2.2748087E-2,1.7172003E-2,9.496029E-3,5.8917804E-3,1.7904775E-2,5.847004E-3,2.941441E-2,-5.524099E-3,-7.303812E-4,-1.0890622E-3,2.9702955E-3,1.748253E-3,-1.0541464E-3,2.8878928E-3,7.16865E-3],"split_indices":[48,4,45,22,47,22,3,0,0,0,0,0,0,0,0],"split_type":[0,0,0,0,0,0,0,0,0,0,0,0,0,0,0],"sum_hessian":[4.7E1,2.4E1,2.3E1,1.6E1,8E0,1.6E1,7E0,1.1E1,5E0,3E0,5E0,1.1E1,5E0,3E0,4E0],"tree_param":{"num_deleted":"0","num_feature":"64","num_nodes":"15","size_leaf_vector":"1"}},{"base_weights":[-3.261202E-2,-6.3919565E-3,-1.8152781E-1,-8.143225E-2,2.3837226E-2,-2.9738147E-3,-1.2909869E-2,-6.3805664E-3,-1.5108505E-3,8.39473E-3,-2.3914663E-4],"categories":[],"categories_nodes":[],"categories_segments":[],"categories_sizes":[],"default_left":[0,0,0,0,0,0,0,0,0,0,0],"id":62,"left_children":[1,3,5,7,9,-1,-1,-1,-1,-1,-1],"loss_changes":[1.82355E-1,9.494579E-2,5.0146863E-2,2.4524838E-2,1.24491386E-1,0E0,0E0,0E0,0E0,0E0,0E0],"parents":[2147483647,0,0,1,1,2,2,3,3,4,4],"right_children":[2,4,6,8,10,-1,-1,-1,-1,-1,-1],"split_conditions":[9.127768E-3,1.0984941E-2,1.1460034E-2,8.699306E-3,1.7891629E-2,-2.9738147E-3,-1.2909869E-2,-6.3805664E-3,-1.5108505E-3,8.39473E-3,-2.3914663E-4],"split_indices":[54,29,5,6,1,0,0,0,0,0,0],"split_type":[0,0,0,0,0,0,0,0,0,0,0],"sum_hessian":[4.6E1,4E1,6E0,1.1E1,2.9E1,3E0,3E0,5E0,6E0,4E0,2.5E1],"tree_param":{"num_deleted":"0","num_feature":"64","num_nodes":"11","size_leaf_vector":"1"}},{"base_weights":[3.2761488E-2,5.7947554E-2,-9.726404E-2,1.6801083E-2,9.437527E-2,-6.6019716E-3,-1.4739396E-3,-5.497369E-4,2.284819E-3,-1.7767244E-3,5.9000514E-3],"categories":[],"categories_nodes":[],"categories_segments":[],"categories_sizes":[],"default_left":[0,0,0,0,0,0,0,0,0,0,0],"id":63,"left_children":[1,3,5,7,9,-1,-1,-1,-1,-1,-1],"loss_changes":[1.595533E-1,5.836925E-2,1.4965698E-2,1.6565789E-2,6.8646684E-2,0E0,0E0,0E0,0E0,0E0,0E0],"parents":[2147483647,0,0,1,1,2,2,3,3,4,4],"right_children":[2,4,6,8,10,-1,-1,-1,-1,-1,-1],"split_conditions":[1.8366843E-2,1.1564369E-2,1.7935447E-2,8.678332E-3,1.2724602E-2,-6.6019716E-3,-1.4739396E-3,-5.497369E-4,2.284819E-3,-1.7767244E-3,5.9000514E-3],"split_indices":[14,9,1,27,50,0,0,0,0,0,0],"split_type":[0,0,0,0,0,0,0,0,0,0,0],"sum_hessian":[4.6E1,3.9E1,7E0,1.9E1,2E1,4E0,3E0,1E1,9E0,3E0,1.7E1],"tree_param":{"num_deleted":"0","num_feature":"64","num_nodes":"11","size_leaf_vector":"1"}},{"base_weights":[1.5200072E-2,6.1904076E-2,-6.3484386E-2,3.928596E-2,9.955017E-3,-1.21447004E-1,7.972347E-3,-2.4575416E-3,3.344707E-3,-2.4074863E-3,-8.114345E-3,-1.4166812E-3,3.0219108E-3],"categories":[],"categories_nodes":[],"categories_segments":[],"categories_sizes":[],"default_left":[0,0,0,0,0,0,0,0,0,0,0,0,0],"id":64,"left_children":[1,3,5,7,-1,9,11,-1,-1,-1,-1,-1,-1],"loss_changes":[1.7664927E-1,8.527176E-2,7.552097E-2,6.9210514E-2,0E0,2.212046E-2,1.8855853E-2,0E0,0E0,0E0,0E0,0E0,0E0],"parents":[2147483647,0,0,1,1,2,2,3,3,5,5,6,6],"right_children":[2,4,6,8,-1,10,12,-1,-1,-1,-1,-1,-1],"split_conditions":[6.78201E-3,6.7685833E-3,8.720231E-3,1.12114595E-2,9.955017E-3,1.0998934E-2,2.019441E-2,-2.4575416E-3,3.344707E-3,-2.4074863E-3,-8.114345E-3,-1.4166812E-3,3.0219108E-3],"split_indices":[42,42,6,10,0,29,8,0,0,0,0,0,0],"split_type":[0,0,0,0,0,0,0,0,0,0,0,0,0],"sum_hessian":[4.6E1,2.9E1,1.7E1,2.6E1,3E0,9E0,8E0,6E0,2E1,4E0,5E0,5E0,3E0],"tree_param":{"num_deleted":"0","num_feature":"64","num_nodes":"13","size_leaf_vector":"1"}},{"base_weights":[3.3517458E-2,-1.0426194E-1,5.622327E-2,-7.036397E-3,-2.0865225E-3,-3.8632036E-3,7.69094E-2,1.997546E-3,7.3748566E-3],"categories":[],"categories_nodes":[],"categories_segments":[],"categories_sizes":[],"default_left":[0,0,0,0,0,0,0,0,0],"id":65,"left_children":[1,3,5,-1,-1,-1,7,-1,-1],"loss_changes":[1.5289643E-1,1.0089278E-2,1.1915715E-1,0E0,0E0,0E0,8.8024706E-2,0E0,0E0],"parents":[2147483647,0,0,1,1,2,2,6,6],"right_children":[2,4,6,-1,-1,-1,8,-1,-1],"split_conditions":[1.2308975E-2,3.9625756E-2,5.6632035E-3,-7.036397E-3,-2.0865225E-3,-3.8632036E-3,1.1623122E-2,1.997546E-3,7.3748566E-3],"split_indices":[18,0,22,0,0,0,9,0,0],"split_type":[0,0,0,0,0,0,0,0,0],"sum_hessian":[4.6E1,6E0,4E1,3E0,3E0,5E0,3.5E1,2.4E1,1.1E1],"tree_param":{"num_deleted":"0","num_feature":"64","num_nodes":"9","size_leaf_vector":"1"}},{"base_weights":[3.040158E-3,1.6715312E-2,-7.4073286E-3,-5.5575855E-2,5.6023706E-2,-4.1174875E-3,9.898333E-4,7.1353116E-3,1.0978127E-3],"categories":[],"categories_nodes":[],"categories_segments":[],"categories_sizes":[],"default_left":[0,0,0,0,0,0,0,0,0],"id":66,"left_children":[1,3,-1,5,7,-1,-1,-1,-1],"loss_changes":[9.964891E-2,1.2814616E-1,0E0,3.391851E-2,8.250523E-2,0E0,0E0,0E0,0E0],"parents":[2147483647,0,0,1,1,3,3,4,4],"right_children":[2,4,-1,6,8,-1,-1,-1,-1],"split_conditions":[1.48479305E-2,9.480817E-3,-7.4073286E-3,1.461107E-2,2.3496686E-2,-4.1174875E-3,9.898333E-4,7.1353116E-3,1.0978127E-3],"split_indices":[20,45,0,20,61,0,0,0,0],"split_type":[0,0,0,0,0,0,0,0,0],"sum_hessian":[4.6E1,4.3E1,3E0,1.5E1,2.8E1,1.1E1,4E0,7E0,2.1E1],"tree_param":{"num_deleted":"0","num_feature":"64","num_nodes":"9","size_leaf_vector":"1"}},{"base_weights":[1.41264405E-2,-4.518746E-2,4.6197724E-2,-5.242635E-3,-1.876333E-2,-3.030067E-2,8.4068425E-2,-2.109018E-3,1.3569993E-3,7.874525E-4,-4.435507E-3,1.655242E-3,6.8408935E-3],"categories":[],"categories_nodes":[],"categories_segments":[],"categories_sizes":[],"default_left":[0,0,0,0,0,0,0,0,0,0,0,0,0],"id":67,"left_children":[1,3,5,-1,7,9,11,-1,-1,-1,-1,-1,-1],"loss_changes":[9.149438E-2,2.4834853E-2,9.235582E-2,0E0,1.5118725E-2,3.0984238E-2,5.1924974E-2,0E0,0E0,0E0,0E0,0E0,0E0],"parents":[2147483647,0,0,1,1,2,2,4,4,5,5,6,6],"right_children":[2,4,6,-1,8,10,12,-1,-1,-1,-1,-1,-1],"split_conditions":[1.4163396E-2,1.2675584E-2,2.3400798E-2,-5.242635E-3,2.1762123E-2,5.5926335E-3,8.679307E-3,-2.109018E-3,1.3569993E-3,7.874525E-4,-4.435507E-3,1.655242E-3,6.8408935E-3],"split_indices":[49,28,32,0,2,25,27,0,0,0,0,0,0],"split_type":[0,0,0,0,0,0,0,0,0,0,0,0,0],"sum_hessian":[4.6E1,1.6E1,3E1,4E0,1.2E1,1E1,2E1,8E0,4E0,6E0,4E0,1.1E1,9E0],"tree_param":{"num_deleted":"0","num_feature":"64","num_nodes":"13","size_leaf_vector":"1"}},{"base_weights":[-4.757073E-3,-8.813137E-2,5.00315E-2,-7.372877E-3,-4.940717E-2,8.670836E-2,-5.7083797E-2,-4.160657E-3,-8.938398E-4,2.27525E-3,1.088494E-2,-4.475774E-3,-1.1366233E-4],"categories":[],"categories_nodes":[],"categories_segments":[],"categories_sizes":[],"default_left":[0,0,0,0,0,0,0,0,0,0,0,0,0],"id":68,"left_children":[1,3,5,-1,7,9,11,-1,-1,-1,-1,-1,-1],"loss_changes":[2.1910341E-1,3.636436E-2,1.1888056E-1,0E0,1.2369312E-2,1.0883306E-1,1.4017295E-2,0E0,0E0,0E0,0E0,0E0,0E0],"parents":[2147483647,0,0,1,1,2,2,4,4,5,5,6,6],"right_children":[2,4,6,-1,8,10,12,-1,-1,-1,-1,-1,-1],"split_conditions":[6.7293155E-3,1.810856E-2,5.856564E-3,-7.372877E-3,1.51371695E-2,9.093857E-3,2.2935735E-2,-4.160657E-3,-8.938398E-4,2.27525E-3,1.088494E-2,-4.475774E-3,-1.1366233E-4],"split_indices":[42,19,26,0,7,54,16,0,0,0,0,0,0],"split_type":[0,0,0,0,0,0,0,0,0,0,0,0,0],"sum_hessian":[4.6E1,1.8E1,2.8E1,6E0,1.2E1,2.1E1,7E0,5E0,7E0,1.7E1,4E0,4E0,3E0],"tree_param":{"num_deleted":"0","num_feature":"64","num_nodes":"13","size_leaf_vector":"1"}},{"base_weights":[2.7978834E-2,1.09784484E-1,-2.4764037E-2,6.218917E-2,1.3635981E-2,-3.9633582E-3,-5.36531E-3,-1.8914491E-3,4.9340483E-3,-2.4294432E-3,1.4513119E-3],"categories":[],"categories_nodes":[],"categories_segments":[],"categories_sizes":[],"default_left":[0,0,0,0,0,0,0,0,0,0,0],"id":69,"left_children":[1,3,5,7,-1,9,-1,-1,-1,-1,-1],"loss_changes":[2.0982262E-1,1.303838E-1,5.10827E-2,6.2130477E-2,0E0,3.8214784E-2,0E0,0E0,0E0,0E0,0E0],"parents":[2147483647,0,0,1,1,2,2,3,3,5,5],"right_children":[2,4,6,8,-1,10,-1,-1,-1,-1,-1],"split_conditions":[1.7084464E-2,2.3741279E-2,1.1655368E-2,8.682427E-3,1.3635981E-2,1.1076605E-2,-5.36531E-3,-1.8914491E-3,4.9340483E-3,-2.4294432E-3,1.4513119E-3],"split_indices":[4,48,5,27,0,34,0,0,0,0,0],"split_type":[0,0,0,0,0,0,0,0,0,0,0],"sum_hessian":[4.7E1,1.8E1,2.9E1,1.5E1,3E0,2.4E1,5E0,4E0,1.1E1,1E1,1.4E1],"tree_param":{"num_deleted":"0","num_feature":"64","num_nodes":"11","size_leaf_vector":"1"}},{"base_weights":[-3.8940262E-2,-1.022168E-2,-1.7766565E-1,-2.991877E-2,8.726591E-3,-1.15213245E-2,-3.3649087E-3,1.63186E-3,-3.4707661E-3],"categories":[],"categories_nodes":[],"categories_segments":[],"categories_sizes":[],"default_left":[0,0,0,0,0,0,0,0,0],"id":70,"left_children":[1,3,5,7,-1,-1,-1,-1,-1],"loss_changes":[1.8543178E-1,1.5078603E-1,3.1077355E-2,9.3683094E-2,0E0,0E0,0E0,0E0,0E0],"parents":[2147483647,0,0,1,1,2,2,3,3],"right_children":[2,4,6,8,-1,-1,-1,-1,-1],"split_conditions":[5.7796845E-3,5.950013E-3,5.9194462E-3,1.7197555E-2,8.726591E-3,-1.15213245E-2,-3.3649087E-3,1.63186E-3,-3.4707661E-3],"split_indices":[38,22,22,4,0,0,0,0,0],"split_type":[0,0,0,0,0,0,0,0,0],"sum_hessian":[4.6E1,3.9E1,7E0,3.6E1,3E0,4E0,3E0,1.4E1,2.2E1],"tree_param":{"num_deleted":"0","num_feature":"64","num_nodes":"9","size_leaf_vector":"1"}},{"base_weights":[1.1756596E-2,-4.908617E-2,4.4742737E-2,-7.071595E-2,1.17720665E-4,-3.819125E-2,8.040625E-2,-5.5611343E-3,-1.2946804E-3,5.147899E-4,-4.436873E-3,1.7437058E-3,6.5778694E-3],"categories":[],"categories_nodes":[],"categories_segments":[],"categories_sizes":[],"default_left":[0,0,0,0,0,0,0,0,0,0,0,0,0],"id":71,"left_children":[1,3,5,7,-1,9,11,-1,-1,-1,-1,-1,-1],"loss_changes":[9.652376E-2,1.9081514E-2,9.476005E-2,1.8907323E-2,0E0,2.542199E-2,4.66505E-2,0E0,0E0,0E0,0E0,0E0,0E0],"parents":[2147483647,0,0,1,1,2,2,3,3,5,5,6,6],"right_children":[2,4,6,8,-1,10,12,-1,-1,-1,-1,-1,-1],"split_conditions":[1.4163396E-2,1.2810435E-2,2.3326715E-2,8.725252E-3,1.17720665E-4,5.5926335E-3,8.679307E-3,-5.5611343E-3,-1.2946804E-3,5.147899E-4,-4.436873E-3,1.7437058E-3,6.5778694E-3],"split_indices":[49,28,32,27,0,25,27,0,0,0,0,0,0],"split_type":[0,0,0,0,0,0,0,0,0,0,0,0,0],"sum_hessian":[4.6E1,1.6E1,3E1,1.1E1,5E0,9E0,2.1E1,5E0,6E0,5E0,4E0,1.2E1,9E0],"tree_param":{"num_deleted":"0","num_feature":"64","num_nodes":"13","size_leaf_vector":"1"}},{"base_weights":[8.703678E-4,-5.218629E-2,5.6101456E-2,-8.471202E-2,2.7519897E-2,2.3161542E-2,1.1908609E-1,-5.488087E-3,-8.159489E-4,-9.5262344E-4,2.9636906E-3,-1.0114507E-3,1.903428E-3,2.7915742E-3,7.293628E-3],"categories":[],"categories_nodes":[],"categories_segments":[],"categories_sizes":[],"default_left":[0,0,0,0,0,0,0,0,0,0,0,0,0,0,0],"id":72,"left_children":[1,3,5,7,9,11,13,-1,-1,-1,-1,-1,-1,-1,-1],"loss_changes":[1.4358583E-1,6.714381E-2,4.7034785E-2,2.9046878E-2,1.2960151E-2,1.1766092E-2,5.410664E-3,0E0,0E0,0E0,0E0,0E0,0E0,0E0,0E0],"parents":[2147483647,0,0,1,1,2,2,3,3,4,4,5,5,6,6],"right_children":[2,4,6,8,10,12,14,-1,-1,-1,-1,-1,-1,-1,-1],"split_conditions":[2.2748087E-2,1.7199146E-2,9.496029E-3,5.8917804E-3,1.1395148E-2,1.2194234E-2,2.941441E-2,-5.488087E-3,-8.159489E-4,-9.5262344E-4,2.9636906E-3,-1.0114507E-3,1.903428E-3,2.7915742E-3,7.293628E-3],"split_indices":[48,4,45,22,10,57,3,0,0,0,0,0,0,0,0],"split_type":[0,0,0,0,0,0,0,0,0,0,0,0,0,0,0],"sum_hessian":[4.7E1,2.4E1,2.3E1,1.7E1,7E0,1.6E1,7E0,1.2E1,5E0,3E0,4E0,4E0,1.2E1,3E0,4E0],"tree_param":{"num_deleted":"0","num_feature":"64","num_nodes":"15","size_leaf_vector":"1"}},{"base_weights":[6.6674105E-4,-2.3716245E-2,9.3255416E-2,-8.4145956E-2,1.5040501E-2,7.280896E-3,5.8846624E-4,1.6037008E-3,-6.4661796E-3,2.8034088E-3,-3.7011683E-3],"categories":[],"categories_nodes":[],"categories_segments":[],"categories_sizes":[],"default_left":[0,0,0,0,0,0,0,0,0,0,0],"id":73,"left_children":[1,3,5,7,9,-1,-1,-1,-1,-1,-1],"loss_changes":[1.0831833E-1,9.026383E-2,4.0954337E-2,8.290606E-2,9.184836E-2,0E0,0E0,0E0,0E0,0E0,0E0],"parents":[2147483647,0,0,1,1,2,2,3,3,4,4],"right_children":[2,4,6,8,10,-1,-1,-1,-1,-1,-1],"split_conditions":[1.16699515E-2,8.9858025E-3,2.966811E-2,5.6818067E-3,1.2501904E-2,7.280896E-3,5.8846624E-4,1.6037008E-3,-6.4661796E-3,2.8034088E-3,-3.7011683E-3],"split_indices":[5,54,3,26,57,0,0,0,0,0,0],"split_type":[0,0,0,0,0,0,0,0,0,0,0],"sum_hessian":[4.6E1,3.7E1,9E0,1.4E1,2.3E1,5E0,4E0,4E0,1E1,1.6E1,7E0],"tree_param":{"num_deleted":"0","num_feature":"64","num_nodes":"11","size_leaf_vector":"1"}},{"base_weights":[2.9951913E-2,-9.211652E-2,5.3616803E-2,-6.0447436E-3,-1.6557224E-3,2.6968978E-2,1.7538954E-1,-4.265518E-3,2.2391619E-3,1.0775413E-2,4.5711724E-3],"categories":[],"categories_nodes":[],"categories_segments":[],"categories_sizes":[],"default_left":[0,0,0,0,0,0,0,0,0,0,0],"id":74,"left_children":[1,3,5,-1,-1,7,9,-1,-1,-1,-1],"loss_changes":[1.4070958E-1,9.580493E-3,1.2506908E-1,0E0,0E0,7.182634E-2,3.8777739E-3,0E0,0E0,0E0,0E0],"parents":[2147483647,0,0,1,1,2,2,5,5,6,6],"right_children":[2,4,6,-1,-1,8,10,-1,-1,-1,-1],"split_conditions":[5.676385E-3,1.25127435E-2,1.16665475E-2,-6.0447436E-3,-1.6557224E-3,1.2308975E-2,1.7936856E-2,-4.265518E-3,2.2391619E-3,1.0775413E-2,4.5711724E-3],"split_indices":[22,30,9,0,0,18,1,0,0,0,0],"split_type":[0,0,0,0,0,0,0,0,0,0,0],"sum_hessian":[4.6E1,7E0,3.9E1,4E0,3E0,3.3E1,6E0,4E0,2.9E1,3E0,3E0],"tree_param":{"num_deleted":"0","num_feature":"64","num_nodes":"11","size_leaf_vector":"1"}},{"base_weights":[7.7505214E-3,5.2434538E-2,-6.7153424E-2,3.0124865E-2,9.49581E-3,-1.1811933E-1,-3.0631523E-3,2.7795201E-3,-3.4134786E-3,-2.1595054E-3,-8.043691E-3,1.7222181E-3,-2.9279317E-3],"categories":[],"categories_nodes":[],"categories_segments":[],"categories_sizes":[],"default_left":[0,0,0,0,0,0,0,0,0,0,0,0,0],"id":75,"left_children":[1,3,5,7,-1,9,11,-1,-1,-1,-1,-1,-1],"loss_changes":[1.6083059E-1,8.629393E-2,5.8433704E-2,7.144815E-2,0E0,2.5087431E-2,2.0750493E-2,0E0,0E0,0E0,0E0,0E0,0E0],"parents":[2147483647,0,0,1,1,2,2,3,3,5,5,6,6],"right_children":[2,4,6,8,-1,10,12,-1,-1,-1,-1,-1,-1],"split_conditions":[6.78201E-3,6.7685833E-3,8.720231E-3,6.741627E-3,9.49581E-3,1.0998934E-2,5.7313377E-3,2.7795201E-3,-3.4134786E-3,-2.1595054E-3,-8.043691E-3,1.7222181E-3,-2.9279317E-3],"split_indices":[42,42,6,42,0,29,38,0,0,0,0,0,0],"split_type":[0,0,0,0,0,0,0,0,0,0,0,0,0],"sum_hessian":[4.6E1,2.9E1,1.7E1,2.6E1,3E0,9E0,8E0,2.1E1,5E0,4E0,5E0,5E0,3E0],"tree_param":{"num_deleted":"0","num_feature":"64","num_nodes":"13","size_leaf_vector":"1"}},{"base_weights":[2.3859728E-2,1.4530848E-1,-7.892766E-3,1.3073734E-2,5.8169447E-2,3.3044536E-2,-6.880542E-2,3.567847E-3,1.5219797E-3,1.5175997E-4,5.2745375E-3,-1.1625936E-4,-4.9406164E-3],"categories":[],"categories_nodes":[],"categories_segments":[],"categories_sizes":[],"default_left":[0,0,0,0,0,0,0,0,0,0,0,0,0],"id":76,"left_children":[1,3,5,-1,7,9,11,-1,-1,-1,-1,-1,-1],"loss_changes":[1.8624932E-1,8.601627E-2,9.952403E-2,0E0,3.8773194E-4,5.1857322E-2,3.16881E-2,0E0,0E0,0E0,0E0,0E0,0E0],"parents":[2147483647,0,0,1,1,2,2,4,4,5,5,6,6],"right_children":[2,4,6,-1,8,10,12,-1,-1,-1,-1,-1,-1],"split_conditions":[5.749427E-3,1.7888596E-2,1.7250048E-2,1.3073734E-2,1.1414589E-2,2.1963695E-2,1.8077271E-2,3.567847E-3,1.5219797E-3,1.5175997E-4,5.2745375E-3,-1.1625936E-4,-4.9406164E-3],"split_indices":[22,14,4,0,9,31,19,0,0,0,0,0,0],"split_type":[0,0,0,0,0,0,0,0,0,0,0,0,0],"sum_hessian":[4.7E1,9E0,3.8E1,3E0,6E0,2.3E1,1.5E1,3E0,3E0,1.7E1,6E0,5E0,1E1],"tree_param":{"num_deleted":"0","num_feature":"64","num_nodes":"13","size_leaf_vector":"1"}},{"base_weights":[-3.5268422E-2,6.0994667E-3,-5.689409E-2,-6.7438036E-3,-1.17247395E-1,-1.1610418E-3,4.0723286E-3,-1.6284563E-3,-7.2581633E-3],"categories":[],"categories_nodes":[],"categories_segments":[],"categories_sizes":[],"default_left":[0,0,0,0,0,0,0,0,0],"id":77,"left_children":[1,-1,3,5,7,-1,-1,-1,-1],"loss_changes":[1.6677827E-1,0E0,1.263322E-1,3.676603E-2,4.018566E-2,0E0,0E0,0E0,0E0],"parents":[2147483647,0,0,2,2,3,3,4,4],"right_children":[2,-1,4,6,8,-1,-1,-1,-1],"split_conditions":[1.0840887E-2,6.0994667E-3,1.51819885E-2,1.3022595E-2,1.686494E-2,-1.1610418E-3,4.0723286E-3,-1.6284563E-3,-7.2581633E-3],"split_indices":[34,0,11,50,13,0,0,0,0],"split_type":[0,0,0,0,0,0,0,0,0],"sum_hessian":[4.6E1,5E0,4.1E1,2.3E1,1.8E1,2E1,3E0,5E0,1.3E1],"tree_param":{"num_deleted":"0","num_feature":"64","num_nodes":"9","size_leaf_vector":"1"}},{"base_weights":[2.9450536E-2,5.4339483E-2,-9.867553E-2,1.4143613E-2,9.003367E-2,-6.797222E-3,-1.3710251E-3,-2.2043218E-4,2.9083493E-3,-2.0039266E-3,5.6972816E-3],"categories":[],"categories_nodes":[],"categories_segments":[],"categories_sizes":[],"default_left":[0,0,0,0,0,0,0,0,0,0,0],"id":78,"left_children":[1,3,5,7,9,-1,-1,-1,-1,-1,-1],"loss_changes":[1.5524136E-1,5.6116983E-2,1.7517112E-2,1.6591094E-2,6.990272E-2,0E0,0E0,0E0,0E0,0E0,0E0],"parents":[2147483647,0,0,1,1,2,2,3,3,4,4],"right_children":[2,4,6,8,10,-1,-1,-1,-1,-1,-1],"split_conditions":[1.8366843E-2,1.1564369E-2,1.7935447E-2,1.2533549E-2,1.2724602E-2,-6.797222E-3,-1.3710251E-3,-2.2043218E-4,2.9083493E-3,-2.0039266E-3,5.6972816E-3],"split_indices":[14,9,1,18,50,0,0,0,0,0,0],"split_type":[0,0,0,0,0,0,0,0,0,0,0],"sum_hessian":[4.6E1,3.9E1,7E0,1.9E1,2E1,4E0,3E0,1.4E1,5E0,3E0,1.7E1],"tree_param":{"num_deleted":"0","num_feature":"64","num_nodes":"11","size_leaf_vector":"1"}},{"base_weights":[-7.7531054E-3,-8.802018E-2,4.5103017E-2,-7.276633E-3,-5.028114E-2,8.2355104E-2,-6.2978104E-2,-4.465368E-3,-1.1506558E-3,2.0368062E-3,1.0785621E-2,-4.773065E-3,-3.3147933E-4],"categories":[],"categories_nodes":[],"categories_segments":[],"categories_sizes":[],"default_left":[0,0,0,0,0,0,0,0,0,0,0,0,0],"id":79,"left_children":[1,3,5,-1,7,9,11,-1,-1,-1,-1,-1,-1],"loss_changes":[2.0337248E-1,3.39213E-2,1.2194773E-1,0E0,1.1778943E-2,1.13317E-1,1.4010165E-2,0E0,0E0,0E0,0E0,0E0,0E0],"parents":[2147483647,0,0,1,1,2,2,4,4,5,5,6,6],"right_children":[2,4,6,-1,8,10,12,-1,-1,-1,-1,-1,-1],"split_conditions":[6.7293155E-3,1.810856E-2,5.856564E-3,-7.276633E-3,3.9661024E-2,9.093857E-3,2.2935735E-2,-4.465368E-3,-1.1506558E-3,2.0368062E-3,1.0785621E-2,-4.773065E-3,-3.3147933E-4],"split_indices":[42,19,26,0,63,54,16,0,0,0,0,0,0],"split_type":[0,0,0,0,0,0,0,0,0,0,0,0,0],"sum_hessian":[4.6E1,1.8E1,2.8E1,6E0,1.2E1,2.1E1,7E0,4E0,8E0,1.7E1,4E0,4E0,3E0],"tree_param":{"num_deleted":"0","num_feature":"64","num_nodes":"13","size_leaf_vector":"1"}},{"base_weights":[-2.8696703E-3,1.197918E-2,-8.274481E-3,-2.349306E-2,8.96692E-2,-6.8159937E-3,-8.645458E-5,6.140159E-3,2.7336957E-4],"categories":[],"categories_nodes":[],"categories_segments":[],"categories_sizes":[],"default_left":[0,0,0,0,0,0,0,0,0],"id":80,"left_children":[1,3,-1,5,7,-1,-1,-1,-1],"loss_changes":[1.1547423E-1,1.2336353E-1,0E0,7.588664E-2,3.838776E-2,0E0,0E0,0E0,0E0],"parents":[2147483647,0,0,1,1,3,3,4,4],"right_children":[2,4,-1,6,8,-1,-1,-1,-1],"split_conditions":[1.48479305E-2,9.691357E-3,-8.274481E-3,2.4864523E-2,5.9152674E-3,-6.8159937E-3,-8.645458E-5,6.140159E-3,2.7336957E-4],"split_indices":[20,33,0,51,22,0,0,0,0],"split_type":[0,0,0,0,0,0,0,0,0],"sum_hessian":[4.6E1,4.3E1,3E0,3E1,1.3E1,4E0,2.6E1,9E0,4E0],"tree_param":{"num_deleted":"0","num_feature":"64","num_nodes":"9","size_leaf_vector":"1"}},{"base_weights":[-3.6834672E-2,7.935828E-3,-5.3774904E-2,-8.780583E-3,-1.0732906E-1,-3.7567546E-3,5.7823997E-4,-1.1807679E-3,-7.0759775E-3],"categories":[],"categories_nodes":[],"categories_segments":[],"categories_sizes":[],"default_left":[0,0,0,0,0,0,0,0,0],"id":81,"left_children":[1,-1,3,5,7,-1,-1,-1,-1],"loss_changes":[1.6423108E-1,0E0,1.05081424E-1,3.461912E-2,5.390224E-2,0E0,0E0,0E0,0E0],"parents":[2147483647,0,0,2,2,3,3,4,4],"right_children":[2,-1,4,6,8,-1,-1,-1,-1],"split_conditions":[1.1366806E-2,7.935828E-3,1.51819885E-2,1.1294526E-2,1.686494E-2,-3.7567546E-3,5.7823997E-4,-1.1807679E-3,-7.0759775E-3],"split_indices":[9,0,11,23,13,0,0,0,0],"split_type":[0,0,0,0,0,0,0,0,0],"sum_hessian":[4.6E1,3E0,4.3E1,2.4E1,1.9E1,5E0,1.9E1,6E0,1.3E1],"tree_param":{"num_deleted":"0","num_feature":"64","num_nodes":"9","size_leaf_vector":"1"}},{"base_weights":[3.0373419E-3,-5.1872946E-2,6.0109004E-2,-8.661526E-2,1.9515075E-2,2.7915347E-2,1.210069E-1,-5.6588044E-3,-9.5288636E-4,2.9644524E-3,-1.2080956E-3,-8.06014E-4,2.1352398E-3,2.9219452E-3,7.3429956E-3],"categories":[],"categories_nodes":[],"categories_segments":[],"categories_sizes":[],"default_left":[0,0,0,0,0,0,0,0,0,0,0,0,0,0,0],"id":82,"left_children":[1,3,5,7,9,11,13,-1,-1,-1,-1,-1,-1,-1,-1],"loss_changes":[1.5354146E-1,6.3694924E-2,4.367467E-2,2.8347641E-2,1.70674E-2,1.1759875E-2,4.358232E-3,0E0,0E0,0E0,0E0,0E0,0E0,0E0,0E0],"parents":[2147483647,0,0,1,1,2,2,3,3,4,4,5,5,6,6],"right_children":[2,4,6,8,10,12,14,-1,-1,-1,-1,-1,-1,-1,-1],"split_conditions":[2.2748087E-2,1.7172003E-2,9.496029E-3,5.8917804E-3,8.726144E-3,1.2194234E-2,2.941441E-2,-5.6588044E-3,-9.5288636E-4,2.9644524E-3,-1.2080956E-3,-8.06014E-4,2.1352398E-3,2.9219452E-3,7.3429956E-3],"split_indices":[48,4,45,22,6,57,3,0,0,0,0,0,0,0,0],"split_type":[0,0,0,0,0,0,0,0,0,0,0,0,0,0,0],"sum_hessian":[4.7E1,2.4E1,2.3E1,1.6E1,8E0,1.6E1,7E0,1.1E1,5E0,4E0,4E0,4E0,1.2E1,3E0,4E0],"tree_param":{"num_deleted":"0","num_feature":"64","num_nodes":"15","size_leaf_vector":"1"}},{"base_weights":[-4.1064404E-2,-3.0146998E-3,-1.4034711E-1,-8.623706E-2,2.9109849E-2,-1.9354062E-1,1.3861712E-3,-1.5372443E-3,-6.7790127E-3,8.274386E-3,2.0631577E-4,-5.522848E-3,-1.1526012E-2],"categories":[],"categories_nodes":[],"categories_segments":[],"categories_sizes":[],"default_left":[0,0,0,0,0,0,0,0,0,0,0,0,0],"id":83,"left_children":[1,3,5,7,9,11,-1,-1,-1,-1,-1,-1,-1],"loss_changes":[1.7712775E-1,9.608218E-2,1.21588975E-1,2.3213208E-2,8.7904364E-2,5.261451E-3,0E0,0E0,0E0,0E0,0E0,0E0,0E0],"parents":[2147483647,0,0,1,1,2,2,3,3,4,4,5,5],"right_children":[2,4,6,8,10,12,-1,-1,-1,-1,-1,-1,-1],"split_conditions":[9.099063E-3,1.0984941E-2,1.8238386E-2,5.665451E-3,1.7891629E-2,9.638245E-3,1.3861712E-3,-1.5372443E-3,-6.7790127E-3,8.274386E-3,2.0631577E-4,-5.522848E-3,-1.1526012E-2],"split_indices":[54,29,47,25,1,33,0,0,0,0,0,0,0],"split_type":[0,0,0,0,0,0,0,0,0,0,0,0,0],"sum_hessian":[4.6E1,3.4E1,1.2E1,9E0,2.5E1,9E0,3E0,5E0,4E0,3E0,2.2E1,4E0,5E0],"tree_param":{"num_deleted":"0","num_feature":"64","num_nodes":"13","size_leaf_vector":"1"}},{"base_weights":[-6.97193E-3,-8.7413296E-2,4.5971442E-2,-3.5221316E-2,-1.3086393E-1,8.162974E-2,-5.7835292E-2,-2.5228723E-3,1.2362004E-5,-8.013874E-3,-2.333712E-3,2.146566E-3,1.0230905E-2,-4.7187614E-3,1.149226E-4],"categories":[],"categories_nodes":[],"categories_segments":[],"categories_sizes":[],"default_left":[0,0,0,0,0,0,0,0,0,0,0,0,0,0,0],"id":84,"left_children":[1,3,5,7,9,11,13,-1,-1,-1,-1,-1,-1,-1,-1],"loss_changes":[2.0418385E-1,3.847854E-2,1.1206664E-1,5.4165097E-3,1.7282352E-2,9.592347E-2,1.7795183E-2,0E0,0E0,0E0,0E0,0E0,0E0,0E0,0E0],"parents":[2147483647,0,0,1,1,2,2,3,3,4,4,5,5,6,6],"right_children":[2,4,6,8,10,12,14,-1,-1,-1,-1,-1,-1,-1,-1],"split_conditions":[6.7293155E-3,6.6002915E-3,5.856564E-3,1.9876126E-2,1.4422691E-2,9.093857E-3,2.2935735E-2,-2.5228723E-3,1.2362004E-5,-8.013874E-3,-2.333712E-3,2.146566E-3,1.0230905E-2,-4.7187614E-3,1.149226E-4],"split_indices":[42,42,26,8,44,54,16,0,0,0,0,0,0,0,0],"split_type":[0,0,0,0,0,0,0,0,0,0,0,0,0,0,0],"sum_hessian":[4.6E1,1.8E1,2.8E1,9E0,9E0,2.1E1,7E0,6E0,3E0,6E0,3E0,1.7E1,4E0,4E0,3E0],"tree_param":{"num_deleted":"0","num_feature":"64","num_nodes":"15","size_leaf_vector":"1"}},{"base_weights":[2.3863665E-3,4.590317E-2,-7.027421E-2,2.4994813E-2,8.777939E-3,-1.0050782E-1,1.421736E-3,2.473026E-3,-3.4439291E-3,-6.22024E-3,-4.8320796E-4],"categories":[],"categories_nodes":[],"categories_segments":[],"categories_sizes":[],"default_left":[0,0,0,0,0,0,0,0,0,0,0],"id":85,"left_children":[1,3,5,7,-1,9,-1,-1,-1,-1,-1],"loss_changes":[1.5183774E-1,7.69385E-2,5.6575805E-2,6.541711E-2,0E0,2.9190168E-2,0E0,0E0,0E0,0E0,0E0],"parents":[2147483647,0,0,1,1,2,2,3,3,5,5],"right_children":[2,4,6,8,-1,10,-1,-1,-1,-1,-1],"split_conditions":[6.78201E-3,6.7685833E-3,2.0342758E-2,6.741627E-3,8.777939E-3,1.2579968E-2,1.421736E-3,2.473026E-3,-3.4439291E-3,-6.22024E-3,-4.8320796E-4],"split_indices":[42,42,8,42,0,36,0,0,0,0,0],"split_type":[0,0,0,0,0,0,0,0,0,0,0],"sum_hessian":[4.6E1,2.9E1,1.7E1,2.6E1,3E0,1.3E1,4E0,2.1E1,5E0,1E1,3E0],"tree_param":{"num_deleted":"0","num_feature":"64","num_nodes":"11","size_leaf_vector":"1"}},{"base_weights":[9.441028E-3,-4.8139673E-2,4.0712994E-2,-6.722148E-2,1.5340779E-3,-4.2184E-2,7.6542854E-2,-2.6653797E-4,-4.5722346E-3,7.635852E-5,-4.31003E-3,8.698704E-3,2.6001222E-3],"categories":[],"categories_nodes":[],"categories_segments":[],"categories_sizes":[],"default_left":[0,0,0,0,0,0,0,0,0,0,0,0,0],"id":86,"left_children":[1,3,5,7,-1,9,11,-1,-1,-1,-1,-1,-1],"loss_changes":[8.6591005E-2,2.7631335E-2,9.5304705E-2,2.0501211E-2,0E0,1.9371813E-2,4.3554947E-2,0E0,0E0,0E0,0E0,0E0,0E0],"parents":[2147483647,0,0,1,1,2,2,3,3,5,5,6,6],"right_children":[2,4,6,8,-1,10,12,-1,-1,-1,-1,-1,-1],"split_conditions":[1.4163396E-2,2.033585E-2,2.3326715E-2,1.4125651E-2,1.5340779E-3,5.5926335E-3,3.9225046E-2,-2.6653797E-4,-4.5722346E-3,7.635852E-5,-4.31003E-3,8.698704E-3,2.6001222E-3],"split_indices":[49,8,32,44,0,25,0,0,0,0,0,0,0],"split_type":[0,0,0,0,0,0,0,0,0,0,0,0,0],"sum_hessian":[4.6E1,1.6E1,3E1,1.3E1,3E0,9E0,2.1E1,4E0,9E0,5E0,4E0,3E0,1.8E1],"tree_param":{"num_deleted":"0","num_feature":"64","num_nodes":"13","size_leaf_vector":"1"}},{"base_weights":[2.5169061E-2,4.830696E-2,-9.366655E-2,-4.9893167E-3,7.132641E-2,-6.66975E-3,-1.0294681E-3,-1.5394407E-3,3.037838E-3,7.6255524E-3,2.3523332E-3],"categories":[],"categories_nodes":[],"categories_segments":[],"categories_sizes":[],"default_left":[0,0,0,0,0,0,0,0,0,0,0],"id":87,"left_children":[1,3,5,7,9,-1,-1,-1,-1,-1,-1],"loss_changes":[1.3375625E-1,4.942991E-2,2.0479418E-2,2.3921434E-2,4.801683E-2,0E0,0E0,0E0,0E0,0E0,0E0],"parents":[2147483647,0,0,1,1,2,2,3,3,4,4],"right_children":[2,4,6,8,10,-1,-1,-1,-1,-1,-1],"split_conditions":[1.8366843E-2,1.1325943E-2,1.7935447E-2,5.840953E-3,8.595598E-3,-6.66975E-3,-1.0294681E-3,-1.5394407E-3,3.037838E-3,7.6255524E-3,2.3523332E-3],"split_indices":[14,23,1,26,6,0,0,0,0,0,0],"split_type":[0,0,0,0,0,0,0,0,0,0,0],"sum_hessian":[4.6E1,3.9E1,7E0,1.2E1,2.7E1,4E0,3E0,9E0,3E0,5E0,2.2E1],"tree_param":{"num_deleted":"0","num_feature":"64","num_nodes":"11","size_leaf_vector":"1"}},{"base_weights":[2.2248793E-2,1.4367388E-1,-9.456328E-3,1.2376717E-2,6.3800216E-2,-2.7481768E-2,5.930651E-3,1.5965477E-3,3.985971E-3,-4.5850943E-4,-5.722969E-3],"categories":[],"categories_nodes":[],"categories_segments":[],"categories_sizes":[],"default_left":[0,0,0,0,0,0,0,0,0,0,0],"id":88,"left_children":[1,3,5,-1,7,9,-1,-1,-1,-1,-1],"loss_changes":[1.861489E-1,6.716442E-2,9.329143E-2,0E0,1.0058172E-3,5.4694798E-2,0E0,0E0,0E0,0E0,0E0],"parents":[2147483647,0,0,1,1,2,2,4,4,5,5],"right_children":[2,4,6,-1,8,10,-1,-1,-1,-1,-1],"split_conditions":[5.749427E-3,1.6855238E-2,2.200707E-2,1.2376717E-2,1.715076E-2,1.8338026E-2,5.930651E-3,1.5965477E-3,3.985971E-3,-4.5850943E-4,-5.722969E-3],"split_indices":[22,4,31,0,4,19,0,0,0,0,0],"split_type":[0,0,0,0,0,0,0,0,0,0,0],"sum_hessian":[4.7E1,9E0,3.8E1,3E0,6E0,3.4E1,4E0,3E0,3E0,2.9E1,5E0],"tree_param":{"num_deleted":"0","num_feature":"64","num_nodes":"11","size_leaf_vector":"1"}},{"base_weights":[2.974843E-2,4.611153E-3,1.5171626E-1,2.4718927E-2,-7.0543527E-3,1.0694892E-2,1.8030119E-3,1.9204594E-3,-4.720273E-3],"categories":[],"categories_nodes":[],"categories_segments":[],"categories_sizes":[],"default_left":[0,0,0,0,0,0,0,0,0],"id":89,"left_children":[1,3,5,7,-1,-1,-1,-1,-1],"loss_changes":[1.4339957E-1,1.20674185E-1,4.982017E-2,6.233642E-2,0E0,0E0,0E0,0E0,0E0],"parents":[2147483647,0,0,1,1,2,2,3,3],"right_children":[2,4,6,8,-1,-1,-1,-1,-1],"split_conditions":[1.16665475E-2,1.8229969E-2,1.5193037E-2,1.749973E-2,-7.0543527E-3,1.0694892E-2,1.8030119E-3,1.9204594E-3,-4.720273E-3],"split_indices":[9,1,7,59,0,0,0,0,0],"split_type":[0,0,0,0,0,0,0,0,0],"sum_hessian":[4.6E1,3.9E1,7E0,3.5E1,4E0,4E0,3E0,3.2E1,3E0],"tree_param":{"num_deleted":"0","num_feature":"64","num_nodes":"9","size_leaf_vector":"1"}},{"base_weights":[2.0513227E-2,4.295643E-2,-9.426695E-2,-1.2180175E-2,6.7021415E-2,-6.5337196E-3,-1.2595454E-3,-2.3422407E-3,1.8034688E-3,7.003113E-3,2.252665E-3],"categories":[],"categories_nodes":[],"categories_segments":[],"categories_sizes":[],"default_left":[0,0,0,0,0,0,0,0,0,0,0],"id":90,"left_children":[1,3,5,7,9,-1,-1,-1,-1,-1,-1],"loss_changes":[1.2512302E-1,5.389078E-2,1.6827255E-2,2.3432853E-2,3.8617685E-2,0E0,0E0,0E0,0E0,0E0,0E0],"parents":[2147483647,0,0,1,1,2,2,3,3,4,4],"right_children":[2,4,6,8,10,-1,-1,-1,-1,-1,-1],"split_conditions":[1.8366843E-2,1.1325943E-2,1.7935447E-2,1.0679254E-2,8.595598E-3,-6.5337196E-3,-1.2595454E-3,-2.3422407E-3,1.8034688E-3,7.003113E-3,2.252665E-3],"split_indices":[14,23,1,46,6,0,0,0,0,0,0],"split_type":[0,0,0,0,0,0,0,0,0,0,0],"sum_hessian":[4.6E1,3.9E1,7E0,1.2E1,2.7E1,4E0,3E0,7E0,5E0,5E0,2.2E1],"tree_param":{"num_deleted":"0","num_feature":"64","num_nodes":"11","size_leaf_vector":"1"}},{"base_weights":[-6.1343643E-3,9.036791E-3,-8.574175E-3,-2.644312E-2,8.695396E-2,-6.8850303E-3,-2.4302532E-4,6.1226203E-3,-7.168561E-5],"categories":[],"categories_nodes":[],"categories_segments":[],"categories_sizes":[],"default_left":[0,0,0,0,0,0,0,0,0],"id":91,"left_children":[1,3,-1,5,7,-1,-1,-1,-1],"loss_changes":[1.194509E-1,1.2393708E-1,0E0,7.376874E-2,4.410232E-2,0E0,0E0,0E0,0E0],"parents":[2147483647,0,0,1,1,3,3,4,4],"right_children":[2,4,-1,6,8,-1,-1,-1,-1],"split_conditions":[1.48479305E-2,9.691357E-3,-8.574175E-3,2.4864523E-2,5.9152674E-3,-6.8850303E-3,-2.4302532E-4,6.1226203E-3,-7.168561E-5],"split_indices":[20,33,0,51,22,0,0,0,0],"split_type":[0,0,0,0,0,0,0,0,0],"sum_hessian":[4.6E1,4.3E1,3E0,3E1,1.3E1,4E0,2.6E1,9E0,4E0],"tree_param":{"num_deleted":"0","num_feature":"64","num_nodes":"9","size_leaf_vector":"1"}},{"base_weights":[3.6092366E-3,-5.108566E-2,6.0432702E-2,-7.407501E-2,2.784339E-3,2.8712254E-2,1.20284565E-1,-4.6181274E-3,1.3368812E-3,1.981043E-3,-8.322969E-4,7.7749016E-3,3.4028445E-3],"categories":[],"categories_nodes":[],"categories_segments":[],"categories_sizes":[],"default_left":[0,0,0,0,0,0,0,0,0,0,0,0,0],"id":92,"left_children":[1,3,5,7,-1,9,11,-1,-1,-1,-1,-1,-1],"loss_changes":[1.52269E-1,6.5490745E-2,4.2111017E-2,4.118547E-2,0E0,9.071037E-3,4.130222E-3,0E0,0E0,0E0,0E0,0E0,0E0],"parents":[2147483647,0,0,1,1,2,2,3,3,5,5,6,6],"right_children":[2,4,6,8,-1,10,12,-1,-1,-1,-1,-1,-1],"split_conditions":[2.2748087E-2,9.76877E-3,9.496029E-3,1.724356E-2,2.784339E-3,8.752013E-3,1.1078651E-2,-4.6181274E-3,1.3368812E-3,1.981043E-3,-8.322969E-4,7.7749016E-3,3.4028445E-3],"split_indices":[48,45,45,4,0,27,10,0,0,0,0,0,0],"split_type":[0,0,0,0,0,0,0,0,0,0,0,0,0],"sum_hessian":[4.7E1,2.4E1,2.3E1,2E1,4E0,1.6E1,7E0,1.7E1,3E0,1.3E1,3E0,3E0,4E0],"tree_param":{"num_deleted":"0","num_feature":"64","num_nodes":"13","size_leaf_vector":"1"}},{"base_weights":[2.2078034E-2,1.3770966E-1,-8.137208E-3,1.1563376E-2,3.2287617E-3,-2.5974303E-2,5.917495E-3,-4.1483165E-4,-5.5016805E-3],"categories":[],"categories_nodes":[],"categories_segments":[],"categories_sizes":[],"default_left":[0,0,0,0,0,0,0,0,0],"id":93,"left_children":[1,3,5,-1,-1,7,-1,-1,-1],"loss_changes":[1.6882479E-1,5.348885E-2,9.106441E-2,0E0,0E0,5.109614E-2,0E0,0E0,0E0],"parents":[2147483647,0,0,1,1,2,2,5,5],"right_children":[2,4,6,-1,-1,8,-1,-1,-1],"split_conditions":[5.749427E-3,1.7888596E-2,2.200707E-2,1.1563376E-2,3.2287617E-3,1.8338026E-2,5.917495E-3,-4.1483165E-4,-5.5016805E-3],"split_indices":[22,14,31,0,0,19,0,0,0],"split_type":[0,0,0,0,0,0,0,0,0],"sum_hessian":[4.7E1,9E0,3.8E1,3E0,6E0,3.4E1,4E0,2.9E1,5E0],"tree_param":{"num_deleted":"0","num_feature":"64","num_nodes":"9","size_leaf_vector":"1"}},{"base_weights":[-3.6778588E-2,7.889756E-3,-5.363123E-2,-6.28583E-3,-1.0518639E-1,-3.6738631E-3,7.6316757E-4,-7.6460275E-3,-2.8321198E-3],"categories":[],"categories_nodes":[],"categories_segments":[],"categories_sizes":[],"default_left":[0,0,0,0,0,0,0,0,0],"id":94,"left_children":[1,-1,3,5,7,-1,-1,-1,-1],"loss_changes":[1.6257954E-1,0E0,1.067384E-1,3.5871595E-2,3.999956E-2,0E0,0E0,0E0,0E0],"parents":[2147483647,0,0,2,2,3,3,4,4],"right_children":[2,-1,4,6,8,-1,-1,-1,-1],"split_conditions":[1.1366806E-2,7.889756E-3,1.5180762E-2,1.1294526E-2,9.613092E-3,-3.6738631E-3,7.6316757E-4,-7.6460275E-3,-2.8321198E-3],"split_indices":[9,0,11,23,45,0,0,0,0],"split_type":[0,0,0,0,0,0,0,0,0],"sum_hessian":[4.6E1,3E0,4.3E1,2.3E1,2E1,5E0,1.8E1,9E0,1.1E1],"tree_param":{"num_deleted":"0","num_feature":"64","num_nodes":"9","size_leaf_vector":"1"}},{"base_weights":[-8.707741E-3,-9.158789E-2,4.5893315E-2,-4.36971E-2,-1.303199E-1,1.2823553E-2,8.526174E-3,-2.925469E-3,-3.425669E-4,-8.0802115E-3,-2.1496182E-3,4.1751484E-3,-1.3867543E-3],"categories":[],"categories_nodes":[],"categories_segments":[],"categories_sizes":[],"default_left":[0,0,0,0,0,0,0,0,0,0,0,0,0],"id":95,"left_children":[1,3,5,7,9,11,-1,-1,-1,-1,-1,-1,-1],"loss_changes":[2.1689443E-1,2.954863E-2,1.173365E-1,5.05683E-3,2.0372078E-2,7.111582E-2,0E0,0E0,0E0,0E0,0E0,0E0,0E0],"parents":[2147483647,0,0,1,1,2,2,3,3,4,4,5,5],"right_children":[2,4,6,8,10,12,-1,-1,-1,-1,-1,-1,-1],"split_conditions":[6.7293155E-3,6.6002915E-3,9.102339E-3,1.9876126E-2,1.4422691E-2,1.14770485E-2,8.526174E-3,-2.925469E-3,-3.425669E-4,-8.0802115E-3,-2.1496182E-3,4.1751484E-3,-1.3867543E-3],"split_indices":[42,42,54,8,44,9,0,0,0,0,0,0,0],"split_type":[0,0,0,0,0,0,0,0,0,0,0,0,0],"sum_hessian":[4.6E1,1.8E1,2.8E1,9E0,9E0,2.3E1,5E0,6E0,3E0,6E0,3E0,8E0,1.5E1],"tree_param":{"num_deleted":"0","num_feature":"64","num_nodes":"13","size_leaf_vector":"1"}},{"base_weights":[-1.4561269E-3,4.0109787E-2,-7.0651755E-2,8.264141E-3,1.266523E-1,-9.989869E-2,1.268501E-3,7.6992423E-3,-1.0646603E-3,3.0550824E-3,7.6881177E-3,-6.225004E-3,-3.635114E-4],"categories":[],"categories_nodes":[],"categories_segments":[],"categories_sizes":[],"default_left":[0,0,0,0,0,0,0,0,0,0,0,0,0],"id":96,"left_children":[1,3,5,7,9,11,-1,-1,-1,-1,-1,-1,-1],"loss_changes":[1.3801426E-1,8.163339E-2,5.3084597E-2,1.0234252E-1,4.821524E-3,3.0997887E-2,0E0,0E0,0E0,0E0,0E0,0E0,0E0],"parents":[2147483647,0,0,1,1,2,2,3,3,4,4,5,5],"right_children":[2,4,6,8,10,12,-1,-1,-1,-1,-1,-1,-1],"split_conditions":[6.78201E-3,1.8233776E-2,2.0342758E-2,2.3173217E-2,2.9528394E-2,1.2579968E-2,1.268501E-3,7.6992423E-3,-1.0646603E-3,3.0550824E-3,7.6881177E-3,-6.225004E-3,-3.635114E-4],"split_indices":[42,19,8,61,3,36,0,0,0,0,0,0,0],"split_type":[0,0,0,0,0,0,0,0,0,0,0,0,0],"sum_hessian":[4.6E1,2.9E1,1.7E1,2.2E1,7E0,1.3E1,4E0,3E0,1.9E1,3E0,4E0,1E1,3E0],"tree_param":{"num_deleted":"0","num_feature":"64","num_nodes":"13","size_leaf_vector":"1"}},{"base_weights":[2.8654808E-2,3.1392656E-3,1.5265067E-1,2.2776572E-2,-6.94386E-3,1.0584614E-2,2.0342993E-3,-2.47886E-3,2.4365345E-3],"categories":[],"categories_nodes":[],"categories_segments":[],"categories_sizes":[],"default_left":[0,0,0,0,0,0,0,0,0],"id":97,"left_children":[1,3,5,7,-1,-1,-1,-1,-1],"loss_changes":[1.482204E-1,1.1471597E-1,4.4271693E-2,7.001956E-2,0E0,0E0,0E0,0E0,0E0],"parents":[2147483647,0,0,1,1,2,2,3,3],"right_children":[2,4,6,8,-1,-1,-1,-1,-1],"split_conditions":[1.16665475E-2,1.8229969E-2,1.5193037E-2,1.1299155E-2,-6.94386E-3,1.0584614E-2,2.0342993E-3,-2.47886E-3,2.4365345E-3],"split_indices":[9,1,7,5,0,0,0,0,0],"split_type":[0,0,0,0,0,0,0,0,0],"sum_hessian":[4.6E1,3.9E1,7E0,3.5E1,4E0,4E0,3E0,9E0,2.6E1],"tree_param":{"num_deleted":"0","num_feature":"64","num_nodes":"9","size_leaf_vector":"1"}},{"base_weights":[6.3244486E-3,-6.4727482E-3,7.2756247E-3,3.7950784E-2,-3.8687147E-2,3.2239265E-4,5.256625E-3,-3.2098566E-3,8.315697E-4],"categories":[],"categories_nodes":[],"categories_segments":[],"categories_sizes":[],"default_left":[0,0,0,0,0,0,0,0,0],"id":98,"left_children":[1,3,-1,5,7,-1,-1,-1,-1],"loss_changes":[8.4659055E-2,6.4435616E-2,0E0,3.953412E-2,3.775825E-2,0E0,0E0,0E0,0E0],"parents":[2147483647,0,0,1,1,3,3,4,4],"right_children":[2,4,-1,6,8,-1,-1,-1,-1],"split_conditions":[5.9351767E-3,1.2357032E-2,7.2756247E-3,1.1452855E-2,1.1451342E-2,3.2239265E-4,5.256625E-3,-3.2098566E-3,8.315697E-4],"split_indices":[26,36,0,5,10,0,0,0,0],"split_type":[0,0,0,0,0,0,0,0,0],"sum_hessian":[4.6E1,4.3E1,3E0,1.8E1,2.5E1,1.3E1,5E0,1.7E1,8E0],"tree_param":{"num_deleted":"0","num_feature":"64","num_nodes":"9","size_leaf_vector":"1"}},{"base_weights":[-4.570136E-2,-1.755431E-2,-1.8072394E-1,-3.5933264E-2,7.841979E-3,-1.1679302E-2,-3.4732667E-3,1.3917919E-3,-3.7979744E-3],"categories":[],"categories_nodes":[],"categories_segments":[],"categories_sizes":[],"default_left":[0,0,0,0,0,0,0,0,0],"id":99,"left_children":[1,3,5,7,-1,-1,-1,-1,-1],"loss_changes":[1.7545043E-1,1.3384284E-1,3.082478E-2,9.655453E-2,0E0,0E0,0E0,0E0,0E0],"parents":[2147483647,0,0,1,1,2,2,3,3],"right_children":[2,4,6,8,-1,-1,-1,-1,-1],"split_conditions":[5.7796845E-3,5.950013E-3,5.9194462E-3,1.7197555E-2,7.841979E-3,-1.1679302E-2,-3.4732667E-3,1.3917919E-3,-3.7979744E-3],"split_indices":[38,22,22,4,0,0,0,0,0],"split_type":[0,0,0,0,0,0,0,0,0],"sum_hessian":[4.6E1,3.9E1,7E0,3.6E1,3E0,4E0,3E0,1.4E1,2.2E1],"tree_param":{"num_deleted":"0","num_feature":"64","num_nodes":"9","size_leaf_vector":"1"}}]},"name":"gbtree"},"learner_model_param":{"base_score":"[3.8576797E-1]","boost_from_average":"1","num_class":"0","num_feature":"64","num_target":"1"},"objective":{"name":"reg:squarederror","reg_loss_param":{"scale_pos_weight":"1"}}},"version":[3,2,0]}